#############################################################################
## Copyright (c) 1996, Carnegie Mellon University, Cambridge University,
## Ronald Rosenfeld and Philip Clarkson
## Version 3, Copyright (c) 2006, Carnegie Mellon University 
## Contributors includes Wen Xu, Ananlada Chotimongkol, 
## David Huggins-Daines, Arthur Chan and Alan Black 
#############################################################################
=============================================================================
===============  This file was produced by the CMU-Cambridge  ===============
===============     Statistical Language Modeling Toolkit     ===============
=============================================================================
This is a 3-gram language model, based on a vocabulary of 384 words,
  which begins "</s>", "<s>", "abhijit_mitra"...
This is a CLOSED-vocabulary model
  (OOVs eliminated from training data and are forbidden in test data)
Good-Turing discounting was applied.
1-gram frequency of frequency : 0 
2-gram frequency of frequency : 825 0 0 0 0 0 0 
3-gram frequency of frequency : 6406 2467 990 1478 990 330 0 
1-gram discounting ratios : 
2-gram discounting ratios : 
3-gram discounting ratios : 0.57 0.26 
This file is in the ARPA-standard format introduced by Doug Paul.

p(wd3|wd1,wd2)= if(trigram exists)           p_3(wd1,wd2,wd3)
                else if(bigram w1,w2 exists) bo_wt_2(w1,w2)*p(wd3|wd2)
                else                         p(wd3|w2)

p(wd2|wd1)= if(bigram exists) p_2(wd1,wd2)
            else              bo_wt_1(wd1)*p_1(wd2)

All probs and back-off weights (bo_wt) are given in log10 form.

Data formats:

Beginning of data mark: \data\
ngram 1=nr            # number of 1-grams
ngram 2=nr            # number of 2-grams
ngram 3=nr            # number of 3-grams

\1-grams:
p_1     wd_1 bo_wt_1
\2-grams:
p_2     wd_1 wd_2 bo_wt_2
\3-grams:
p_3     wd_1 wd_2 wd_3 

end of data mark: \end\

\data\
ngram 1=384
ngram 2=8082
ngram 3=52982

\1-grams:
-0.9614 </s>	-5.6246
-0.9614 <s>	-5.3101
-3.3582 abhijit_mitra	-3.2102
-3.6918 abhijit_mitra's	-2.8372
-3.3582 amitash_ojha	-3.2102
-3.6918 amitash_ojha's	-2.8372
-3.3582 anil_kumar	-3.2102
-3.6918 anil_kumar's	-2.8372
-3.3582 anil_kumar_vuppala	-3.2102
-3.6918 anil_kumar_vuppala's	-2.8372
-3.3582 anoop	-3.2102
-3.6918 anoop's	-2.8372
-3.3582 anoop_namboodiri	-3.2102
-3.6918 anoop_namboodiri's	-2.8372
-3.3582 anubha	-3.2102
-3.6918 anubha's	-2.8372
-3.3582 anubha_gupta	-3.2102
-3.6918 anubha_gupta's	-2.8372
-3.3582 ashok	-3.2102
-3.6918 ashok's	-2.8372
-3.3582 ashok_kumar	-3.2102
-3.6918 ashok_kumar's	-2.8372
-3.3582 ashok_kumar_das	-3.2102
-3.6918 ashok_kumar_das's	-2.8372
-3.3582 azeemuddin	-3.2102
-3.6918 azeemuddin's	-2.8372
-3.3582 azeemuddin_syed	-3.2102
-3.6918 azeemuddin_syed's	-2.8372
-3.3582 bagga	-3.2102
-3.6918 bagga's	-2.8372
-3.3582 bagga_r_k	-3.2102
-3.6918 bagga_r_k's	-2.8372
-3.3582 banatanwi_das	-3.2102
-3.6918 banatanwi_das's	-2.8372
-3.3582 banatanwi_das_mahapatra	-3.2102
-3.6918 banatanwi_das_mahapatra's	-2.8372
-3.3774 batao	-3.2091
-3.3582 bezawada	-3.2102
-3.6918 bezawada's	-2.8372
-3.3582 bhaskararao	-3.2102
-3.6918 bhaskararao's	-2.8372
-3.3582 bhaskararao_peri	-3.2102
-3.6918 bhaskararao_peri's	-2.8372
-3.3582 bipin	-3.2102
-3.6918 bipin's	-2.8372
-3.3582 bipin_indurkhya	-3.2102
-3.6918 bipin_indurkhya's	-2.8372
-3.3582 bruhadeshwar	-3.2102
-3.6918 bruhadeshwar's	-2.8372
-3.3582 bruhadeshwar_bezawada	-3.2102
-3.6918 bruhadeshwar_bezawada's	-2.8372
-3.3582 c_n_kaul	-3.2102
-3.6918 c_n_kaul's	-2.8372
-3.3582 c_v_jawahar	-3.2102
-3.6918 c_v_jawahar's	-2.8372
-3.0966 call	-3.4307
-1.5850 can	-5.0398
-2.0038 cell	-4.5825
-3.3582 chakrapani_bommaraju	-3.2102
-3.6918 chakrapani_bommaraju's	-2.8372
-3.3582 chandrasekher	-3.2102
-3.6918 chandrasekher's	-2.8372
-3.3582 chandrasekher_mukku	-3.2102
-3.6918 chandrasekher_mukku's	-2.8372
-3.3582 chenna	-3.2102
-3.6918 chenna's	-2.8372
-3.3582 chenna_rajaram	-3.2102
-3.6918 chenna_rajaram's	-2.8372
-3.3582 deva_priyakumar	-3.2102
-3.6918 deva_priyakumar's	-2.8372
-3.3582 devansh_mittal	-3.2102
-3.6918 devansh_mittal's	-2.8372
-3.3582 dipti_m_sharma	-3.2102
-3.6918 dipti_m_sharma's	-2.8372
-3.3582 dipti_misra_sharma	-3.2102
-3.6918 dipti_misra_sharma's	-2.8372
-3.3582 dipti_sharma	-3.2102
-3.6918 dipti_sharma's	-2.8372
-3.3774 do	-3.2091
-1.9955 doctor	-4.5954
-1.9955 dr	-4.5954
-1.5267 extension	-5.0596
-3.3582 gangashetty	-3.2102
-3.6918 gangashetty's	-2.8372
-3.3582 giridhar	-3.2102
-3.6918 giridhar's	-2.8372
-3.3582 giridhar_rao	-3.2102
-3.6918 giridhar_rao's	-2.8372
-3.3582 giridhar_rao_a	-3.2102
-3.6918 giridhar_rao_a's	-2.8372
-1.2840 give	-5.3291
-3.3582 govindarajulu	-3.2102
-3.6918 govindarajulu's	-2.8372
-3.3582 govindarajulu_r	-3.2102
-3.6918 govindarajulu_r's	-2.8372
-3.3582 harjinder	-3.2102
-3.6918 harjinder's	-2.8372
-3.3582 harjinder_singh	-3.2102
-3.6918 harjinder_singh's	-2.8372
-3.3582 harsh_satya	-3.2102
-3.6918 harsh_satya's	-2.8372
-2.0038 home	-4.5825
-1.8860 i	-4.7446
-3.3582 indranil	-3.2102
-3.6918 indranil's	-2.8372
-3.3582 indranil_chakarbarty	-3.2102
-3.6918 indranil_chakarbarty's	-2.8372
-1.8860 is	-4.6384
-3.3582 jawahar	-3.2102
-3.6918 jawahar's	-2.8372
-3.3582 jawahar_c_v	-3.2102
-3.6918 jawahar_c_v's	-2.8372
-3.3582 jayanthi	-3.2102
-3.6918 jayanthi's	-2.8372
-3.3582 jayanthi_sivaswamy	-3.2102
-3.6918 jayanthi_sivaswamy's	-2.8372
-3.3582 jayashree	-3.2102
-3.6918 jayashree's	-2.8372
-3.3582 jayashree_ratnam	-3.2102
-3.6918 jayashree_ratnam's	-2.8372
-3.3582 k_p	-3.2102
-3.6918 k_p's	-2.8372
-3.3582 k_r_sharma	-3.2102
-3.6918 k_r_sharma's	-2.8372
-3.3582 k_s_rajan	-3.2102
-3.6918 k_s_rajan's	-2.8372
-3.0764 ka	-3.4489
-3.3582 kamal_karlapalem	-3.2102
-3.6918 kamal_karlapalem's	-2.8372
-3.3582 kannan	-3.2102
-3.6918 kannan's	-2.8372
-3.3582 kannan_srinathan	-3.2102
-3.6918 kannan_srinathan's	-2.8372
-3.3582 kaul_c_n	-3.2102
-3.6918 kaul_c_n's	-2.8372
-3.3582 kavita	-3.2102
-3.6918 kavita's	-2.8372
-3.3582 kavita_vemuri	-3.2102
-3.6918 kavita_vemuri's	-2.8372
-2.9417 ke	-3.6404
-3.3582 kirti	-3.2102
-3.6918 kirti's	-2.8372
-3.3582 kirti_garg	-3.2102
-3.6918 kirti_garg's	-2.8372
-3.3582 kishore_kothapalli	-3.2102
-3.6918 kishore_kothapalli's	-2.8372
-3.3582 kishore_prahallad	-3.2102
-3.6918 kishore_prahallad's	-2.8372
-3.3582 kishore_s_p	-3.2102
-3.6918 kishore_s_p's	-2.8372
-2.7198 ko	-3.8619
-4.4188 ko_call_kariye	-2.1724
-4.4188 ko_call_karo	-2.1724
-4.4188 ko_call_kijiye	-2.1724
-4.4188 ko_call_lagao	-2.1724
-3.3582 krishna_reddy	-3.2102
-3.6918 krishna_reddy's	-2.8372
-3.3582 krishna_reddy_p	-3.2102
-3.6918 krishna_reddy_p's	-2.8372
-3.3582 madhava_krishna	-3.2102
-3.6918 madhava_krishna's	-2.8372
-3.3582 madhava_krishna_k	-3.2102
-3.6918 madhava_krishna_k's	-2.8372
-3.3582 mahapatra	-3.2102
-3.6918 mahapatra's	-2.8372
-3.3582 marimuthu	-3.2102
-3.6918 marimuthu's	-2.8372
-3.3582 marimuthu_krishnan	-3.2102
-3.6918 marimuthu_krishnan's	-2.8372
-1.2840 me	-5.2397
-4.4188 missed_call_batao	-2.1724
-1.9955 missus	-4.5954
-1.9955 mister	-4.5954
-2.0038 mobile	-4.5825
-1.9955 mr	-4.5954
-1.9955 mrs	-4.5954
-3.3582 mulualem	-3.2102
-3.6918 mulualem's	-2.8372
-3.3582 mulualem_teku	-3.2102
-3.6918 mulualem_teku's	-2.8372
-3.3582 naini_arora	-3.2102
-3.6918 naini_arora's	-2.8372
-3.3582 nanda_kishore	-3.2102
-3.6918 nanda_kishore's	-2.8372
-3.3582 nanda_kishore_acharya	-3.2102
-3.6918 nanda_kishore_acharya's	-2.8372
-3.3582 narayanan_p_j	-3.2102
-3.6918 narayanan_p_j's	-2.8372
-3.3582 navjyoti	-3.2102
-3.6918 navjyoti's	-2.8372
-3.3582 navjyoti_singh	-3.2102
-3.6918 navjyoti_singh's	-2.8372
-3.3582 neelima	-3.2102
-3.6918 neelima's	-2.8372
-3.3582 neelima_satyam	-3.2102
-3.6918 neelima_satyam's	-2.8372
-3.3582 neelima_satyam_d	-3.2102
-3.6918 neelima_satyam_d's	-2.8372
-3.3582 nita_parekh	-3.2102
-3.6918 nita_parekh's	-2.8372
-0.9640 number	-5.6030
-1.4646 of	-5.0947
-1.7028 office	-4.8688
-3.3582 p_j_n	-3.2102
-3.6918 p_j_n's	-2.8372
-3.3582 p_j_narayanan	-3.2102
-3.6918 p_j_narayanan's	-2.8372
-3.3582 p_k_reddy	-3.2102
-3.6918 p_k_reddy's	-2.8372
-3.1927 p_r_k	-3.4436
-3.4188 par_call_kariye	-3.1677
-3.4188 par_call_karo	-3.1677
-3.4188 par_call_kijiye	-3.1677
-3.4188 par_call_lagao	-3.1677
-3.4188 pe_call_kariye	-3.1677
-3.4188 pe_call_karo	-3.1677
-3.4188 pe_call_kijiye	-3.1677
-3.4188 pe_call_lagao	-3.1677
-3.3582 peri_bhaskararao	-3.2102
-3.6918 peri_bhaskararao's	-2.8372
-2.0038 phone	-4.5825
-3.3582 piyush_bansal	-3.2102
-3.6918 piyush_bansal's	-2.8372
-1.5850 please	-5.0160
-3.3582 prabhakar	-3.2102
-3.6918 prabhakar's	-2.8372
-3.3582 prabhakar_bhimalapuram	-3.2102
-3.6918 prabhakar_bhimalapuram's	-2.8372
-3.3582 pradeep	-3.2102
-3.6918 pradeep's	-2.8372
-3.3582 pradeep_kumar	-3.2102
-3.6918 pradeep_kumar's	-2.8372
-3.3582 pradeep_kumar_r	-3.2102
-3.6918 pradeep_kumar_r's	-2.8372
-3.3582 pranav_k_vashishta	-3.2102
-3.6918 pranav_k_vashishta's	-2.8372
-3.3582 pranav_vashishta	-3.2102
-3.6918 pranav_vashishta's	-2.8372
-3.3582 prashanth_reddy	-3.2102
-3.6918 prashanth_reddy's	-2.8372
-3.3582 prashanth_reddy_mannem	-3.2102
-3.6918 prashanth_reddy_mannem's	-2.8372
-3.3582 priyanka	-3.2102
-3.6918 priyanka's	-2.8372
-3.3582 priyanka_srivastava	-3.2102
-3.6918 priyanka_srivastava's	-2.8372
-1.9955 prof	-4.5954
-1.9955 professor	-4.5954
-3.3582 r_k_bagga	-3.2102
-3.6918 r_k_bagga's	-2.8372
-3.3582 radhika_mamidi	-3.2102
-3.6918 radhika_mamidi's	-2.8372
-3.3582 raghu_reddy	-3.2102
-3.6918 raghu_reddy's	-2.8372
-3.3582 raghu_reddy_y	-3.2102
-3.6918 raghu_reddy_y's	-2.8372
-3.3582 rajan	-3.2102
-3.6918 rajan's	-2.8372
-3.3582 rajan_k_s	-3.2102
-3.6918 rajan_k_s's	-2.8372
-3.3582 rajeev_sangal	-3.2102
-3.6918 rajeev_sangal's	-2.8372
-3.3582 rajesh_kumar	-3.2102
-3.6918 rajesh_kumar's	-2.8372
-3.3582 rajesh_kumar_tavva	-3.2102
-3.6918 rajesh_kumar_tavva's	-2.8372
-3.3582 rama_murthy	-3.2102
-3.6918 rama_murthy's	-2.8372
-3.3582 rama_murthy_g	-3.2102
-3.6918 rama_murthy_g's	-2.8372
-3.3582 ramachandra_prasad	-3.2102
-3.6918 ramachandra_prasad's	-2.8372
-3.3582 ramachandra_prasad_p	-3.2102
-3.6918 ramachandra_prasad_p's	-2.8372
-3.3582 rambabu	-3.2102
-3.6918 rambabu's	-2.8372
-3.3582 rambabu_kalla	-3.2102
-3.6918 rambabu_kalla's	-2.8372
-3.3582 rao	-3.2102
-3.6918 rao's	-2.8372
-3.3582 rao_p_r_k	-3.2102
-3.6918 rao_p_r_k's	-2.8372
-3.3582 rawat	-3.2102
-3.6918 rawat's	-2.8372
-2.0038 residence	-4.5825
-1.7028 residential	-4.8688
-3.3582 sandhya_kode	-3.2102
-3.6918 sandhya_kode's	-2.8372
-3.3582 sandhya_v_kode	-3.2102
-3.6918 sandhya_v_kode's	-2.8372
-3.3582 sharma_k_r	-3.2102
-3.6918 sharma_k_r's	-2.8372
-3.3582 sharmistha	-3.2102
-3.6918 sharmistha's	-2.8372
-3.3582 sharmistha_kar	-3.2102
-3.6918 sharmistha_kar's	-2.8372
-3.3582 shatrunjay	-3.2102
-3.6918 shatrunjay's	-2.8372
-3.3582 shatrunjay_rawat	-3.2102
-3.6918 shatrunjay_rawat's	-2.8372
-4.4214 show_me_the_missed_calls	-2.1698
-3.3582 shubhajit_roy	-3.2102
-3.6918 shubhajit_roy's	-2.8372
-3.3582 shubhajit_roy_chowdhury	-3.2102
-3.6918 shubhajit_roy_chowdhury's	-2.8372
-1.9955 sir	-4.5954
-1.4743 sir's	-5.0498
-3.3582 soma_paul	-3.2102
-3.6918 soma_paul's	-2.8372
-3.3582 sonal_nimbkar	-3.2102
-3.6918 sonal_nimbkar's	-2.8372
-3.3582 srinathan_kannan	-3.2102
-3.6918 srinathan_kannan's	-2.8372
-3.3582 sriram	-3.2102
-3.6918 sriram's	-2.8372
-3.3582 sriram_v	-3.2102
-3.6918 sriram_v's	-2.8372
-3.3582 srivastava	-3.2102
-3.6918 srivastava's	-2.8372
-3.3582 sunil_lohar	-3.2102
-3.6918 sunil_lohar's	-2.8372
-3.3582 sunil_m_lohar	-3.2102
-3.6918 sunil_m_lohar's	-2.8372
-3.3582 suresh_purini	-3.2102
-3.6918 suresh_purini's	-2.8372
-3.3582 suril_shah	-3.2102
-3.6918 suril_shah's	-2.8372
-3.3582 suril_vijaykumar_shah	-3.2102
-3.6918 suril_vijaykumar_shah's	-2.8372
-3.3582 suryakanth	-3.2102
-3.6918 suryakanth's	-2.8372
-3.3582 suryakanth_v_g	-3.2102
-3.6918 suryakanth_v_g's	-2.8372
-3.3582 syamasundar_reddy	-3.2102
-3.6918 syamasundar_reddy's	-2.8372
-3.3582 syamasundar_reddy_g	-3.2102
-3.6918 syamasundar_reddy_g's	-2.8372
-3.3582 tapan_kumar	-3.2102
-3.6918 tapan_kumar's	-2.8372
-3.3582 tapan_kumar_sau	-3.2102
-3.6918 tapan_kumar_sau's	-2.8372
-1.4858 the	-5.0383
-3.3582 vasudeva_verma	-3.2102
-3.6918 vasudeva_verma's	-2.8372
-3.3582 venkata_dilip_kumar	-3.2102
-3.6918 venkata_dilip_kumar's	-2.8372
-3.3582 venkata_dilip_kumar_p	-3.2102
-3.6918 venkata_dilip_kumar_p's	-2.8372
-3.3582 venkatesh_choppella	-3.2102
-3.6918 venkatesh_choppella's	-2.8372
-3.3582 venkateswarlu	-3.2102
-3.6918 venkateswarlu's	-2.8372
-3.3582 venkateswarlu_m	-3.2102
-3.6918 venkateswarlu_m's	-2.8372
-3.3582 vijay_prakash	-3.2102
-3.6918 vijay_prakash's	-2.8372
-3.3582 vijay_prakash_e	-3.2102
-3.6918 vijay_prakash_e's	-2.8372
-3.3582 vijaya_sankara_rao	-3.2102
-3.6918 vijaya_sankara_rao's	-2.8372
-3.3582 vijaya_sankara_rao_p	-3.2102
-3.6918 vijaya_sankara_rao_p's	-2.8372
-3.3582 vikram_pudi	-3.2102
-3.6918 vikram_pudi's	-2.8372
-3.3582 vinay_kumar	-3.2102
-3.6918 vinay_kumar's	-2.8372
-3.3582 vinay_kumar_mittal	-3.2102
-3.6918 vinay_kumar_mittal's	-2.8372
-3.3582 vineet_chaitanya	-3.2102
-3.6918 vineet_chaitanya's	-2.8372
-3.3582 vishal_garg	-3.2102
-3.6918 vishal_garg's	-2.8372
-3.3582 viswanath	-3.2102
-3.6918 viswanath's	-2.8372
-3.3582 viswanath_k	-3.2102
-3.6918 viswanath_k's	-2.8372
-1.8860 want	-4.6384
-1.8860 what	-4.7446
-1.8860 what's	-4.6384
-3.3582 yegnanarayana	-3.2102
-3.6918 yegnanarayana's	-2.8372
-3.3582 yegnanarayana_b	-3.2102
-3.6918 yegnanarayana_b's	-2.8372
-1.5850 you	-5.0281

\2-grams:
-0.0000 </s> <s> 0.0000
-3.6031 <s> abhijit_mitra 1.5382
-4.6335 <s> abhijit_mitra's 2.6838
-3.6031 <s> amitash_ojha 1.5382
-4.6335 <s> amitash_ojha's 2.6838
-3.6031 <s> anil_kumar 1.5382
-4.6335 <s> anil_kumar's 2.6838
-3.6031 <s> anil_kumar_vuppala 1.5382
-4.6335 <s> anil_kumar_vuppala's 2.6838
-3.6031 <s> anoop 1.5382
-4.6335 <s> anoop's 2.6838
-3.6031 <s> anoop_namboodiri 1.5382
-4.6335 <s> anoop_namboodiri's 2.6838
-3.6031 <s> anubha 1.5382
-4.6335 <s> anubha's 2.6838
-3.6031 <s> anubha_gupta 1.5382
-4.6335 <s> anubha_gupta's 2.6838
-3.6031 <s> ashok 1.5382
-4.6335 <s> ashok's 2.6838
-3.6031 <s> ashok_kumar 1.5382
-4.6335 <s> ashok_kumar's 2.6838
-3.6031 <s> ashok_kumar_das 1.5382
-4.6335 <s> ashok_kumar_das's 2.6838
-3.6031 <s> azeemuddin 1.5382
-4.6335 <s> azeemuddin's 2.6838
-3.6031 <s> azeemuddin_syed 1.5382
-4.6335 <s> azeemuddin_syed's 2.6838
-3.6031 <s> bagga 1.5382
-4.6335 <s> bagga's 2.6838
-3.6031 <s> bagga_r_k 1.5382
-4.6335 <s> bagga_r_k's 2.6838
-3.6031 <s> banatanwi_das 1.5382
-4.6335 <s> banatanwi_das's 2.6838
-3.6031 <s> banatanwi_das_mahapatra 1.5382
-4.6335 <s> banatanwi_das_mahapatra's 2.6838
-3.6031 <s> bezawada 1.5382
-4.6335 <s> bezawada's 2.6838
-3.6031 <s> bhaskararao 1.5382
-4.6335 <s> bhaskararao's 2.6838
-3.6031 <s> bhaskararao_peri 1.5382
-4.6335 <s> bhaskararao_peri's 2.6838
-3.6031 <s> bipin 1.5382
-4.6335 <s> bipin's 2.6838
-3.6031 <s> bipin_indurkhya 1.5382
-4.6335 <s> bipin_indurkhya's 2.6838
-3.6031 <s> bruhadeshwar 1.5382
-4.6335 <s> bruhadeshwar's 2.6838
-3.6031 <s> bruhadeshwar_bezawada 1.5382
-4.6335 <s> bruhadeshwar_bezawada's 2.6838
-3.6031 <s> c_n_kaul 1.5382
-4.6335 <s> c_n_kaul's 2.6838
-3.6031 <s> c_v_jawahar 1.5382
-4.6335 <s> c_v_jawahar's 2.6838
-2.1352 <s> call 1.8506
-0.9247 <s> can 0.3010
-2.4158 <s> cell 1.3734
-3.6031 <s> chakrapani_bommaraju 1.5382
-4.6335 <s> chakrapani_bommaraju's 2.6838
-3.6031 <s> chandrasekher 1.5382
-4.6335 <s> chandrasekher's 2.6838
-3.6031 <s> chandrasekher_mukku 1.5382
-4.6335 <s> chandrasekher_mukku's 2.6838
-3.6031 <s> chenna 1.5382
-4.6335 <s> chenna's 2.6838
-3.6031 <s> chenna_rajaram 1.5382
-4.6335 <s> chenna_rajaram's 2.6838
-3.6031 <s> deva_priyakumar 1.5382
-4.6335 <s> deva_priyakumar's 2.6838
-3.6031 <s> devansh_mittal 1.5382
-4.6335 <s> devansh_mittal's 2.6838
-3.6031 <s> dipti_m_sharma 1.5382
-4.6335 <s> dipti_m_sharma's 2.6838
-3.6031 <s> dipti_misra_sharma 1.5382
-4.6335 <s> dipti_misra_sharma's 2.6838
-3.6031 <s> dipti_sharma 1.5382
-4.6335 <s> dipti_sharma's 2.6838
-2.0956 <s> doctor 1.0647
-2.0956 <s> dr 1.0647
-2.4158 <s> extension 1.8505
-3.6031 <s> gangashetty 1.5382
-4.6335 <s> gangashetty's 2.6838
-3.6031 <s> giridhar 1.5382
-4.6335 <s> giridhar's 2.6838
-3.6031 <s> giridhar_rao 1.5382
-4.6335 <s> giridhar_rao's 2.6838
-3.6031 <s> giridhar_rao_a 1.5382
-4.6335 <s> giridhar_rao_a's 2.6838
-0.9247 <s> give 0.6021
-3.6031 <s> govindarajulu 1.5382
-4.6335 <s> govindarajulu's 2.6838
-3.6031 <s> govindarajulu_r 1.5382
-4.6335 <s> govindarajulu_r's 2.6838
-3.6031 <s> harjinder 1.5382
-4.6335 <s> harjinder's 2.6838
-3.6031 <s> harjinder_singh 1.5382
-4.6335 <s> harjinder_singh's 2.6838
-3.6031 <s> harsh_satya 1.5382
-4.6335 <s> harsh_satya's 2.6838
-2.4158 <s> home 1.3734
-0.9247 <s> i 0.0000
-3.6031 <s> indranil 1.5382
-4.6335 <s> indranil's 2.6838
-3.6031 <s> indranil_chakarbarty 1.5382
-4.6335 <s> indranil_chakarbarty's 2.6838
-3.6031 <s> jawahar 1.5382
-4.6335 <s> jawahar's 2.6838
-3.6031 <s> jawahar_c_v 1.5382
-4.6335 <s> jawahar_c_v's 2.6838
-3.6031 <s> jayanthi 1.5382
-4.6335 <s> jayanthi's 2.6838
-3.6031 <s> jayanthi_sivaswamy 1.5382
-4.6335 <s> jayanthi_sivaswamy's 2.6838
-3.6031 <s> jayashree 1.5382
-4.6335 <s> jayashree's 2.6838
-3.6031 <s> jayashree_ratnam 1.5382
-4.6335 <s> jayashree_ratnam's 2.6838
-3.6031 <s> k_p 1.5382
-4.6335 <s> k_p's 2.6838
-3.6031 <s> k_r_sharma 1.5382
-4.6335 <s> k_r_sharma's 2.6838
-3.6031 <s> k_s_rajan 1.5382
-4.6335 <s> k_s_rajan's 2.6838
-3.6031 <s> kamal_karlapalem 1.5382
-4.6335 <s> kamal_karlapalem's 2.6838
-3.6031 <s> kannan 1.5382
-4.6335 <s> kannan's 2.6838
-3.6031 <s> kannan_srinathan 1.5382
-4.6335 <s> kannan_srinathan's 2.6838
-3.6031 <s> kaul_c_n 1.5382
-4.6335 <s> kaul_c_n's 2.6838
-3.6031 <s> kavita 1.5382
-4.6335 <s> kavita's 2.6838
-3.6031 <s> kavita_vemuri 1.5382
-4.6335 <s> kavita_vemuri's 2.6838
-3.6031 <s> kirti 1.5382
-4.6335 <s> kirti's 2.6838
-3.6031 <s> kirti_garg 1.5382
-4.6335 <s> kirti_garg's 2.6838
-3.6031 <s> kishore_kothapalli 1.5382
-4.6335 <s> kishore_kothapalli's 2.6838
-3.6031 <s> kishore_prahallad 1.5382
-4.6335 <s> kishore_prahallad's 2.6838
-3.6031 <s> kishore_s_p 1.5382
-4.6335 <s> kishore_s_p's 2.6838
-3.6031 <s> krishna_reddy 1.5382
-4.6335 <s> krishna_reddy's 2.6838
-3.6031 <s> krishna_reddy_p 1.5382
-4.6335 <s> krishna_reddy_p's 2.6838
-3.6031 <s> madhava_krishna 1.5382
-4.6335 <s> madhava_krishna's 2.6838
-3.6031 <s> madhava_krishna_k 1.5382
-4.6335 <s> madhava_krishna_k's 2.6838
-3.6031 <s> mahapatra 1.5382
-4.6335 <s> mahapatra's 2.6838
-3.6031 <s> marimuthu 1.5382
-4.6335 <s> marimuthu's 2.6838
-3.6031 <s> marimuthu_krishnan 1.5382
-4.6335 <s> marimuthu_krishnan's 2.6838
-3.4548 <s> missed_call_batao 0.0026
-2.0956 <s> missus 1.0647
-2.0956 <s> mister 1.0647
-2.4158 <s> mobile 1.3734
-2.0956 <s> mr 1.0647
-2.0956 <s> mrs 1.0647
-3.6031 <s> mulualem 1.5382
-4.6335 <s> mulualem's 2.6838
-3.6031 <s> mulualem_teku 1.5382
-4.6335 <s> mulualem_teku's 2.6838
-3.6031 <s> naini_arora 1.5382
-4.6335 <s> naini_arora's 2.6838
-3.6031 <s> nanda_kishore 1.5382
-4.6335 <s> nanda_kishore's 2.6838
-3.6031 <s> nanda_kishore_acharya 1.5382
-4.6335 <s> nanda_kishore_acharya's 2.6838
-3.6031 <s> narayanan_p_j 1.5382
-4.6335 <s> narayanan_p_j's 2.6838
-3.6031 <s> navjyoti 1.5382
-4.6335 <s> navjyoti's 2.6838
-3.6031 <s> navjyoti_singh 1.5382
-4.6335 <s> navjyoti_singh's 2.6838
-3.6031 <s> neelima 1.5382
-4.6335 <s> neelima's 2.6838
-3.6031 <s> neelima_satyam 1.5382
-4.6335 <s> neelima_satyam's 2.6838
-3.6031 <s> neelima_satyam_d 1.5382
-4.6335 <s> neelima_satyam_d's 2.6838
-3.6031 <s> nita_parekh 1.5382
-4.6335 <s> nita_parekh's 2.6838
-2.4158 <s> number -1.8131
-2.1149 <s> office 1.3735
-3.6031 <s> p_j_n 1.5382
-4.6335 <s> p_j_n's 2.6838
-3.6031 <s> p_j_narayanan 1.5382
-4.6335 <s> p_j_narayanan's 2.6838
-3.6031 <s> p_k_reddy 1.5382
-4.6335 <s> p_k_reddy's 2.6838
-3.5610 <s> p_r_k 1.3299
-3.6031 <s> peri_bhaskararao 1.5382
-4.6335 <s> peri_bhaskararao's 2.6838
-2.4158 <s> phone 1.3734
-3.6031 <s> piyush_bansal 1.5382
-4.6335 <s> piyush_bansal's 2.6838
-0.6237 <s> please 0.0000
-3.6031 <s> prabhakar 1.5382
-4.6335 <s> prabhakar's 2.6838
-3.6031 <s> prabhakar_bhimalapuram 1.5382
-4.6335 <s> prabhakar_bhimalapuram's 2.6838
-3.6031 <s> pradeep 1.5382
-4.6335 <s> pradeep's 2.6838
-3.6031 <s> pradeep_kumar 1.5382
-4.6335 <s> pradeep_kumar's 2.6838
-3.6031 <s> pradeep_kumar_r 1.5382
-4.6335 <s> pradeep_kumar_r's 2.6838
-3.6031 <s> pranav_k_vashishta 1.5382
-4.6335 <s> pranav_k_vashishta's 2.6838
-3.6031 <s> pranav_vashishta 1.5382
-4.6335 <s> pranav_vashishta's 2.6838
-3.6031 <s> prashanth_reddy 1.5382
-4.6335 <s> prashanth_reddy's 2.6838
-3.6031 <s> prashanth_reddy_mannem 1.5382
-4.6335 <s> prashanth_reddy_mannem's 2.6838
-3.6031 <s> priyanka 1.5382
-4.6335 <s> priyanka's 2.6838
-3.6031 <s> priyanka_srivastava 1.5382
-4.6335 <s> priyanka_srivastava's 2.6838
-2.0956 <s> prof 1.0647
-2.0956 <s> professor 1.0647
-3.6031 <s> r_k_bagga 1.5382
-4.6335 <s> r_k_bagga's 2.6838
-3.6031 <s> radhika_mamidi 1.5382
-4.6335 <s> radhika_mamidi's 2.6838
-3.6031 <s> raghu_reddy 1.5382
-4.6335 <s> raghu_reddy's 2.6838
-3.6031 <s> raghu_reddy_y 1.5382
-4.6335 <s> raghu_reddy_y's 2.6838
-3.6031 <s> rajan 1.5382
-4.6335 <s> rajan's 2.6838
-3.6031 <s> rajan_k_s 1.5382
-4.6335 <s> rajan_k_s's 2.6838
-3.6031 <s> rajeev_sangal 1.5382
-4.6335 <s> rajeev_sangal's 2.6838
-3.6031 <s> rajesh_kumar 1.5382
-4.6335 <s> rajesh_kumar's 2.6838
-3.6031 <s> rajesh_kumar_tavva 1.5382
-4.6335 <s> rajesh_kumar_tavva's 2.6838
-3.6031 <s> rama_murthy 1.5382
-4.6335 <s> rama_murthy's 2.6838
-3.6031 <s> rama_murthy_g 1.5382
-4.6335 <s> rama_murthy_g's 2.6838
-3.6031 <s> ramachandra_prasad 1.5382
-4.6335 <s> ramachandra_prasad's 2.6838
-3.6031 <s> ramachandra_prasad_p 1.5382
-4.6335 <s> ramachandra_prasad_p's 2.6838
-3.6031 <s> rambabu 1.5382
-4.6335 <s> rambabu's 2.6838
-3.6031 <s> rambabu_kalla 1.5382
-4.6335 <s> rambabu_kalla's 2.6838
-3.6031 <s> rao_p_r_k 1.5382
-4.6335 <s> rao_p_r_k's 2.6838
-3.6031 <s> rawat 1.5382
-4.6335 <s> rawat's 2.6838
-2.4158 <s> residence 1.3734
-2.1149 <s> residential 1.3735
-3.6031 <s> sandhya_kode 1.5382
-4.6335 <s> sandhya_kode's 2.6838
-3.6031 <s> sandhya_v_kode 1.5382
-4.6335 <s> sandhya_v_kode's 2.6838
-3.6031 <s> sharma_k_r 1.5382
-4.6335 <s> sharma_k_r's 2.6838
-3.6031 <s> sharmistha 1.5382
-4.6335 <s> sharmistha's 2.6838
-3.6031 <s> sharmistha_kar 1.5382
-4.6335 <s> sharmistha_kar's 2.6838
-3.6031 <s> shatrunjay 1.5382
-4.6335 <s> shatrunjay's 2.6838
-3.6031 <s> shatrunjay_rawat 1.5382
-4.6335 <s> shatrunjay_rawat's 2.6838
-3.4548 <s> show_me_the_missed_calls 0.0000
-3.6031 <s> shubhajit_roy 1.5382
-4.6335 <s> shubhajit_roy's 2.6838
-3.6031 <s> shubhajit_roy_chowdhury 1.5382
-4.6335 <s> shubhajit_roy_chowdhury's 2.6838
-2.0956 <s> sir 1.0647
-3.6031 <s> soma_paul 1.5382
-4.6335 <s> soma_paul's 2.6838
-3.6031 <s> sonal_nimbkar 1.5382
-4.6335 <s> sonal_nimbkar's 2.6838
-3.6031 <s> srinathan_kannan 1.5382
-4.6335 <s> srinathan_kannan's 2.6838
-3.6031 <s> sriram 1.5382
-4.6335 <s> sriram's 2.6838
-3.6031 <s> sriram_v 1.5382
-4.6335 <s> sriram_v's 2.6838
-3.6031 <s> srivastava 1.5382
-4.6335 <s> srivastava's 2.6838
-3.6031 <s> sunil_lohar 1.5382
-4.6335 <s> sunil_lohar's 2.6838
-3.6031 <s> sunil_m_lohar 1.5382
-4.6335 <s> sunil_m_lohar's 2.6838
-3.6031 <s> suresh_purini 1.5382
-4.6335 <s> suresh_purini's 2.6838
-3.6031 <s> suril_shah 1.5382
-4.6335 <s> suril_shah's 2.6838
-3.6031 <s> suril_vijaykumar_shah 1.5382
-4.6335 <s> suril_vijaykumar_shah's 2.6838
-3.6031 <s> suryakanth 1.5382
-4.6335 <s> suryakanth's 2.6838
-3.6031 <s> suryakanth_v_g 1.5382
-4.6335 <s> suryakanth_v_g's 2.6838
-3.6031 <s> syamasundar_reddy 1.5382
-4.6335 <s> syamasundar_reddy's 2.6838
-3.6031 <s> syamasundar_reddy_g 1.5382
-4.6335 <s> syamasundar_reddy_g's 2.6838
-3.6031 <s> tapan_kumar 1.5382
-4.6335 <s> tapan_kumar's 2.6838
-3.6031 <s> tapan_kumar_sau 1.5382
-4.6335 <s> tapan_kumar_sau's 2.6838
-3.6031 <s> vasudeva_verma 1.5382
-4.6335 <s> vasudeva_verma's 2.6838
-3.6031 <s> venkata_dilip_kumar 1.5382
-4.6335 <s> venkata_dilip_kumar's 2.6838
-3.6031 <s> venkata_dilip_kumar_p 1.5382
-4.6335 <s> venkata_dilip_kumar_p's 2.6838
-3.6031 <s> venkatesh_choppella 1.5382
-4.6335 <s> venkatesh_choppella's 2.6838
-3.6031 <s> venkateswarlu 1.5382
-4.6335 <s> venkateswarlu's 2.6838
-3.6031 <s> venkateswarlu_m 1.5382
-4.6335 <s> venkateswarlu_m's 2.6838
-3.6031 <s> vijay_prakash 1.5382
-4.6335 <s> vijay_prakash's 2.6838
-3.6031 <s> vijay_prakash_e 1.5382
-4.6335 <s> vijay_prakash_e's 2.6838
-3.6031 <s> vijaya_sankara_rao 1.5382
-4.6335 <s> vijaya_sankara_rao's 2.6838
-3.6031 <s> vijaya_sankara_rao_p 1.5382
-4.6335 <s> vijaya_sankara_rao_p's 2.6838
-3.6031 <s> vikram_pudi 1.5382
-4.6335 <s> vikram_pudi's 2.6838
-3.6031 <s> vinay_kumar 1.5382
-4.6335 <s> vinay_kumar's 2.6838
-3.6031 <s> vinay_kumar_mittal 1.5382
-4.6335 <s> vinay_kumar_mittal's 2.6838
-3.6031 <s> vineet_chaitanya 1.5382
-4.6335 <s> vineet_chaitanya's 2.6838
-3.6031 <s> vishal_garg 1.5382
-4.6335 <s> vishal_garg's 2.6838
-3.6031 <s> viswanath 1.5382
-4.6335 <s> viswanath's 2.6838
-3.6031 <s> viswanath_k 1.5382
-4.6335 <s> viswanath_k's 2.6838
-0.9247 <s> what 0.0000
-0.9247 <s> what's 0.0013
-3.6031 <s> yegnanarayana 1.5382
-4.6335 <s> yegnanarayana's 2.6838
-3.6031 <s> yegnanarayana_b 1.5382
-4.6335 <s> yegnanarayana_b's 2.6838
-0.3192 abhijit_mitra </s> 2.7149
-1.9368 abhijit_mitra ka 3.2353
-1.7878 abhijit_mitra ke 2.2040
-1.5716 abhijit_mitra ko 2.2094
-3.2792 abhijit_mitra ko_call_kariye 1.8546
-3.2792 abhijit_mitra ko_call_karo 1.8546
-3.2792 abhijit_mitra ko_call_kijiye 1.8546
-3.2792 abhijit_mitra ko_call_lagao 1.8546
-0.3342 abhijit_mitra sir's 2.2170
-1.0409 abhijit_mitra's cell 2.7240
-1.0409 abhijit_mitra's extension 3.2011
-1.0409 abhijit_mitra's home 2.7240
-1.0409 abhijit_mitra's mobile 2.7240
-1.0409 abhijit_mitra's number -1.4545
-0.7426 abhijit_mitra's office 2.7267
-1.0409 abhijit_mitra's phone 2.7240
-1.0409 abhijit_mitra's residence 2.7240
-0.7426 abhijit_mitra's residential 2.7267
-0.3192 amitash_ojha </s> 2.7149
-1.9368 amitash_ojha ka 3.2353
-1.7878 amitash_ojha ke 2.2040
-1.5716 amitash_ojha ko 2.2094
-3.2792 amitash_ojha ko_call_kariye 1.8546
-3.2792 amitash_ojha ko_call_karo 1.8546
-3.2792 amitash_ojha ko_call_kijiye 1.8546
-3.2792 amitash_ojha ko_call_lagao 1.8546
-0.3342 amitash_ojha sir's 2.2170
-1.0409 amitash_ojha's cell 2.7240
-1.0409 amitash_ojha's extension 3.2011
-1.0409 amitash_ojha's home 2.7240
-1.0409 amitash_ojha's mobile 2.7240
-1.0409 amitash_ojha's number -1.4545
-0.7426 amitash_ojha's office 2.7267
-1.0409 amitash_ojha's phone 2.7240
-1.0409 amitash_ojha's residence 2.7240
-0.7426 amitash_ojha's residential 2.7267
-0.3192 anil_kumar </s> 2.7149
-1.9368 anil_kumar ka 3.2353
-1.7878 anil_kumar ke 2.2040
-1.5716 anil_kumar ko 2.2094
-3.2792 anil_kumar ko_call_kariye 1.8546
-3.2792 anil_kumar ko_call_karo 1.8546
-3.2792 anil_kumar ko_call_kijiye 1.8546
-3.2792 anil_kumar ko_call_lagao 1.8546
-0.3342 anil_kumar sir's 2.2170
-1.0409 anil_kumar's cell 2.7240
-1.0409 anil_kumar's extension 3.2011
-1.0409 anil_kumar's home 2.7240
-1.0409 anil_kumar's mobile 2.7240
-1.0409 anil_kumar's number -1.4545
-0.7426 anil_kumar's office 2.7267
-1.0409 anil_kumar's phone 2.7240
-1.0409 anil_kumar's residence 2.7240
-0.7426 anil_kumar's residential 2.7267
-0.3192 anil_kumar_vuppala </s> 2.7149
-1.9368 anil_kumar_vuppala ka 3.2353
-1.7878 anil_kumar_vuppala ke 2.2040
-1.5716 anil_kumar_vuppala ko 2.2094
-3.2792 anil_kumar_vuppala ko_call_kariye 1.8546
-3.2792 anil_kumar_vuppala ko_call_karo 1.8546
-3.2792 anil_kumar_vuppala ko_call_kijiye 1.8546
-3.2792 anil_kumar_vuppala ko_call_lagao 1.8546
-0.3342 anil_kumar_vuppala sir's 2.2170
-1.0409 anil_kumar_vuppala's cell 2.7240
-1.0409 anil_kumar_vuppala's extension 3.2011
-1.0409 anil_kumar_vuppala's home 2.7240
-1.0409 anil_kumar_vuppala's mobile 2.7240
-1.0409 anil_kumar_vuppala's number -1.4545
-0.7426 anil_kumar_vuppala's office 2.7267
-1.0409 anil_kumar_vuppala's phone 2.7240
-1.0409 anil_kumar_vuppala's residence 2.7240
-0.7426 anil_kumar_vuppala's residential 2.7267
-0.3192 anoop </s> 2.7149
-1.9368 anoop ka 3.2353
-1.7878 anoop ke 2.2040
-1.5716 anoop ko 2.2094
-3.2792 anoop ko_call_kariye 1.8546
-3.2792 anoop ko_call_karo 1.8546
-3.2792 anoop ko_call_kijiye 1.8546
-3.2792 anoop ko_call_lagao 1.8546
-0.3342 anoop sir's 2.2170
-1.0409 anoop's cell 2.7240
-1.0409 anoop's extension 3.2011
-1.0409 anoop's home 2.7240
-1.0409 anoop's mobile 2.7240
-1.0409 anoop's number -1.4545
-0.7426 anoop's office 2.7267
-1.0409 anoop's phone 2.7240
-1.0409 anoop's residence 2.7240
-0.7426 anoop's residential 2.7267
-0.3192 anoop_namboodiri </s> 2.7149
-1.9368 anoop_namboodiri ka 3.2353
-1.7878 anoop_namboodiri ke 2.2040
-1.5716 anoop_namboodiri ko 2.2094
-3.2792 anoop_namboodiri ko_call_kariye 1.8546
-3.2792 anoop_namboodiri ko_call_karo 1.8546
-3.2792 anoop_namboodiri ko_call_kijiye 1.8546
-3.2792 anoop_namboodiri ko_call_lagao 1.8546
-0.3342 anoop_namboodiri sir's 2.2170
-1.0409 anoop_namboodiri's cell 2.7240
-1.0409 anoop_namboodiri's extension 3.2011
-1.0409 anoop_namboodiri's home 2.7240
-1.0409 anoop_namboodiri's mobile 2.7240
-1.0409 anoop_namboodiri's number -1.4545
-0.7426 anoop_namboodiri's office 2.7267
-1.0409 anoop_namboodiri's phone 2.7240
-1.0409 anoop_namboodiri's residence 2.7240
-0.7426 anoop_namboodiri's residential 2.7267
-0.3192 anubha </s> 2.7149
-1.9368 anubha ka 3.2353
-1.7878 anubha ke 2.2040
-1.5716 anubha ko 2.2094
-3.2792 anubha ko_call_kariye 1.8546
-3.2792 anubha ko_call_karo 1.8546
-3.2792 anubha ko_call_kijiye 1.8546
-3.2792 anubha ko_call_lagao 1.8546
-0.3342 anubha sir's 2.2170
-1.0409 anubha's cell 2.7240
-1.0409 anubha's extension 3.2011
-1.0409 anubha's home 2.7240
-1.0409 anubha's mobile 2.7240
-1.0409 anubha's number -1.4545
-0.7426 anubha's office 2.7267
-1.0409 anubha's phone 2.7240
-1.0409 anubha's residence 2.7240
-0.7426 anubha's residential 2.7267
-0.3192 anubha_gupta </s> 2.7149
-1.9368 anubha_gupta ka 3.2353
-1.7878 anubha_gupta ke 2.2040
-1.5716 anubha_gupta ko 2.2094
-3.2792 anubha_gupta ko_call_kariye 1.8546
-3.2792 anubha_gupta ko_call_karo 1.8546
-3.2792 anubha_gupta ko_call_kijiye 1.8546
-3.2792 anubha_gupta ko_call_lagao 1.8546
-0.3342 anubha_gupta sir's 2.2170
-1.0409 anubha_gupta's cell 2.7240
-1.0409 anubha_gupta's extension 3.2011
-1.0409 anubha_gupta's home 2.7240
-1.0409 anubha_gupta's mobile 2.7240
-1.0409 anubha_gupta's number -1.4545
-0.7426 anubha_gupta's office 2.7267
-1.0409 anubha_gupta's phone 2.7240
-1.0409 anubha_gupta's residence 2.7240
-0.7426 anubha_gupta's residential 2.7267
-0.3192 ashok </s> 2.7149
-1.9368 ashok ka 3.2353
-1.7878 ashok ke 2.2040
-1.5716 ashok ko 2.2094
-3.2792 ashok ko_call_kariye 1.8546
-3.2792 ashok ko_call_karo 1.8546
-3.2792 ashok ko_call_kijiye 1.8546
-3.2792 ashok ko_call_lagao 1.8546
-0.3342 ashok sir's 2.2170
-1.0409 ashok's cell 2.7240
-1.0409 ashok's extension 3.2011
-1.0409 ashok's home 2.7240
-1.0409 ashok's mobile 2.7240
-1.0409 ashok's number -1.4545
-0.7426 ashok's office 2.7267
-1.0409 ashok's phone 2.7240
-1.0409 ashok's residence 2.7240
-0.7426 ashok's residential 2.7267
-0.3192 ashok_kumar </s> 2.7149
-1.9368 ashok_kumar ka 3.2353
-1.7878 ashok_kumar ke 2.2040
-1.5716 ashok_kumar ko 2.2094
-3.2792 ashok_kumar ko_call_kariye 1.8546
-3.2792 ashok_kumar ko_call_karo 1.8546
-3.2792 ashok_kumar ko_call_kijiye 1.8546
-3.2792 ashok_kumar ko_call_lagao 1.8546
-0.3342 ashok_kumar sir's 2.2170
-1.0409 ashok_kumar's cell 2.7240
-1.0409 ashok_kumar's extension 3.2011
-1.0409 ashok_kumar's home 2.7240
-1.0409 ashok_kumar's mobile 2.7240
-1.0409 ashok_kumar's number -1.4545
-0.7426 ashok_kumar's office 2.7267
-1.0409 ashok_kumar's phone 2.7240
-1.0409 ashok_kumar's residence 2.7240
-0.7426 ashok_kumar's residential 2.7267
-0.3192 ashok_kumar_das </s> 2.7149
-1.9368 ashok_kumar_das ka 3.2353
-1.7878 ashok_kumar_das ke 2.2040
-1.5716 ashok_kumar_das ko 2.2094
-3.2792 ashok_kumar_das ko_call_kariye 1.8546
-3.2792 ashok_kumar_das ko_call_karo 1.8546
-3.2792 ashok_kumar_das ko_call_kijiye 1.8546
-3.2792 ashok_kumar_das ko_call_lagao 1.8546
-0.3342 ashok_kumar_das sir's 2.2170
-1.0409 ashok_kumar_das's cell 2.7240
-1.0409 ashok_kumar_das's extension 3.2011
-1.0409 ashok_kumar_das's home 2.7240
-1.0409 ashok_kumar_das's mobile 2.7240
-1.0409 ashok_kumar_das's number -1.4545
-0.7426 ashok_kumar_das's office 2.7267
-1.0409 ashok_kumar_das's phone 2.7240
-1.0409 ashok_kumar_das's residence 2.7240
-0.7426 ashok_kumar_das's residential 2.7267
-0.3192 azeemuddin </s> 2.7149
-1.9368 azeemuddin ka 3.2353
-1.7878 azeemuddin ke 2.2040
-1.5716 azeemuddin ko 2.2094
-3.2792 azeemuddin ko_call_kariye 1.8546
-3.2792 azeemuddin ko_call_karo 1.8546
-3.2792 azeemuddin ko_call_kijiye 1.8546
-3.2792 azeemuddin ko_call_lagao 1.8546
-0.3342 azeemuddin sir's 2.2170
-1.0409 azeemuddin's cell 2.7240
-1.0409 azeemuddin's extension 3.2011
-1.0409 azeemuddin's home 2.7240
-1.0409 azeemuddin's mobile 2.7240
-1.0409 azeemuddin's number -1.4545
-0.7426 azeemuddin's office 2.7267
-1.0409 azeemuddin's phone 2.7240
-1.0409 azeemuddin's residence 2.7240
-0.7426 azeemuddin's residential 2.7267
-0.3192 azeemuddin_syed </s> 2.7149
-1.9368 azeemuddin_syed ka 3.2353
-1.7878 azeemuddin_syed ke 2.2040
-1.5716 azeemuddin_syed ko 2.2094
-3.2792 azeemuddin_syed ko_call_kariye 1.8546
-3.2792 azeemuddin_syed ko_call_karo 1.8546
-3.2792 azeemuddin_syed ko_call_kijiye 1.8546
-3.2792 azeemuddin_syed ko_call_lagao 1.8546
-0.3342 azeemuddin_syed sir's 2.2170
-1.0409 azeemuddin_syed's cell 2.7240
-1.0409 azeemuddin_syed's extension 3.2011
-1.0409 azeemuddin_syed's home 2.7240
-1.0409 azeemuddin_syed's mobile 2.7240
-1.0409 azeemuddin_syed's number -1.4545
-0.7426 azeemuddin_syed's office 2.7267
-1.0409 azeemuddin_syed's phone 2.7240
-1.0409 azeemuddin_syed's residence 2.7240
-0.7426 azeemuddin_syed's residential 2.7267
-0.3192 bagga </s> 2.7149
-1.9368 bagga ka 3.2353
-1.7878 bagga ke 2.2040
-1.5716 bagga ko 2.2094
-3.2792 bagga ko_call_kariye 1.8546
-3.2792 bagga ko_call_karo 1.8546
-3.2792 bagga ko_call_kijiye 1.8546
-3.2792 bagga ko_call_lagao 1.8546
-0.3342 bagga sir's 2.2170
-1.0409 bagga's cell 2.7240
-1.0409 bagga's extension 3.2011
-1.0409 bagga's home 2.7240
-1.0409 bagga's mobile 2.7240
-1.0409 bagga's number -1.4545
-0.7426 bagga's office 2.7267
-1.0409 bagga's phone 2.7240
-1.0409 bagga's residence 2.7240
-0.7426 bagga's residential 2.7267
-0.3192 bagga_r_k </s> 2.7149
-1.9368 bagga_r_k ka 3.2353
-1.7878 bagga_r_k ke 2.2040
-1.5716 bagga_r_k ko 2.2094
-3.2792 bagga_r_k ko_call_kariye 1.8546
-3.2792 bagga_r_k ko_call_karo 1.8546
-3.2792 bagga_r_k ko_call_kijiye 1.8546
-3.2792 bagga_r_k ko_call_lagao 1.8546
-0.3342 bagga_r_k sir's 2.2170
-1.0409 bagga_r_k's cell 2.7240
-1.0409 bagga_r_k's extension 3.2011
-1.0409 bagga_r_k's home 2.7240
-1.0409 bagga_r_k's mobile 2.7240
-1.0409 bagga_r_k's number -1.4545
-0.7426 bagga_r_k's office 2.7267
-1.0409 bagga_r_k's phone 2.7240
-1.0409 bagga_r_k's residence 2.7240
-0.7426 bagga_r_k's residential 2.7267
-0.3192 banatanwi_das </s> 2.7149
-1.9368 banatanwi_das ka 3.2353
-1.7878 banatanwi_das ke 2.2040
-1.5716 banatanwi_das ko 2.2094
-3.2792 banatanwi_das ko_call_kariye 1.8546
-3.2792 banatanwi_das ko_call_karo 1.8546
-3.2792 banatanwi_das ko_call_kijiye 1.8546
-3.2792 banatanwi_das ko_call_lagao 1.8546
-0.3342 banatanwi_das sir's 2.2170
-1.0409 banatanwi_das's cell 2.7240
-1.0409 banatanwi_das's extension 3.2011
-1.0409 banatanwi_das's home 2.7240
-1.0409 banatanwi_das's mobile 2.7240
-1.0409 banatanwi_das's number -1.4545
-0.7426 banatanwi_das's office 2.7267
-1.0409 banatanwi_das's phone 2.7240
-1.0409 banatanwi_das's residence 2.7240
-0.7426 banatanwi_das's residential 2.7267
-0.3192 banatanwi_das_mahapatra </s> 2.7149
-1.9368 banatanwi_das_mahapatra ka 3.2353
-1.7878 banatanwi_das_mahapatra ke 2.2040
-1.5716 banatanwi_das_mahapatra ko 2.2094
-3.2792 banatanwi_das_mahapatra ko_call_kariye 1.8546
-3.2792 banatanwi_das_mahapatra ko_call_karo 1.8546
-3.2792 banatanwi_das_mahapatra ko_call_kijiye 1.8546
-3.2792 banatanwi_das_mahapatra ko_call_lagao 1.8546
-0.3342 banatanwi_das_mahapatra sir's 2.2170
-1.0409 banatanwi_das_mahapatra's cell 2.7240
-1.0409 banatanwi_das_mahapatra's extension 3.2011
-1.0409 banatanwi_das_mahapatra's home 2.7240
-1.0409 banatanwi_das_mahapatra's mobile 2.7240
-1.0409 banatanwi_das_mahapatra's number -1.4545
-0.7426 banatanwi_das_mahapatra's office 2.7267
-1.0409 banatanwi_das_mahapatra's phone 2.7240
-1.0409 banatanwi_das_mahapatra's residence 2.7240
-0.7426 banatanwi_das_mahapatra's residential 2.7267
-0.0002 batao </s> 2.4158
-0.3192 bezawada </s> 2.7149
-1.9368 bezawada ka 3.2353
-1.7878 bezawada ke 2.2040
-1.5716 bezawada ko 2.2094
-3.2792 bezawada ko_call_kariye 1.8546
-3.2792 bezawada ko_call_karo 1.8546
-3.2792 bezawada ko_call_kijiye 1.8546
-3.2792 bezawada ko_call_lagao 1.8546
-0.3342 bezawada sir's 2.2170
-1.0409 bezawada's cell 2.7240
-1.0409 bezawada's extension 3.2011
-1.0409 bezawada's home 2.7240
-1.0409 bezawada's mobile 2.7240
-1.0409 bezawada's number -1.4545
-0.7426 bezawada's office 2.7267
-1.0409 bezawada's phone 2.7240
-1.0409 bezawada's residence 2.7240
-0.7426 bezawada's residential 2.7267
-0.3192 bhaskararao </s> 2.7149
-1.9368 bhaskararao ka 3.2353
-1.7878 bhaskararao ke 2.2040
-1.5716 bhaskararao ko 2.2094
-3.2792 bhaskararao ko_call_kariye 1.8546
-3.2792 bhaskararao ko_call_karo 1.8546
-3.2792 bhaskararao ko_call_kijiye 1.8546
-3.2792 bhaskararao ko_call_lagao 1.8546
-0.3342 bhaskararao sir's 2.2170
-1.0409 bhaskararao's cell 2.7240
-1.0409 bhaskararao's extension 3.2011
-1.0409 bhaskararao's home 2.7240
-1.0409 bhaskararao's mobile 2.7240
-1.0409 bhaskararao's number -1.4545
-0.7426 bhaskararao's office 2.7267
-1.0409 bhaskararao's phone 2.7240
-1.0409 bhaskararao's residence 2.7240
-0.7426 bhaskararao's residential 2.7267
-0.3192 bhaskararao_peri </s> 2.7149
-1.9368 bhaskararao_peri ka 3.2353
-1.7878 bhaskararao_peri ke 2.2040
-1.5716 bhaskararao_peri ko 2.2094
-3.2792 bhaskararao_peri ko_call_kariye 1.8546
-3.2792 bhaskararao_peri ko_call_karo 1.8546
-3.2792 bhaskararao_peri ko_call_kijiye 1.8546
-3.2792 bhaskararao_peri ko_call_lagao 1.8546
-0.3342 bhaskararao_peri sir's 2.2170
-1.0409 bhaskararao_peri's cell 2.7240
-1.0409 bhaskararao_peri's extension 3.2011
-1.0409 bhaskararao_peri's home 2.7240
-1.0409 bhaskararao_peri's mobile 2.7240
-1.0409 bhaskararao_peri's number -1.4545
-0.7426 bhaskararao_peri's office 2.7267
-1.0409 bhaskararao_peri's phone 2.7240
-1.0409 bhaskararao_peri's residence 2.7240
-0.7426 bhaskararao_peri's residential 2.7267
-0.3192 bipin </s> 2.7149
-1.9368 bipin ka 3.2353
-1.7878 bipin ke 2.2040
-1.5716 bipin ko 2.2094
-3.2792 bipin ko_call_kariye 1.8546
-3.2792 bipin ko_call_karo 1.8546
-3.2792 bipin ko_call_kijiye 1.8546
-3.2792 bipin ko_call_lagao 1.8546
-0.3342 bipin sir's 2.2170
-1.0409 bipin's cell 2.7240
-1.0409 bipin's extension 3.2011
-1.0409 bipin's home 2.7240
-1.0409 bipin's mobile 2.7240
-1.0409 bipin's number -1.4545
-0.7426 bipin's office 2.7267
-1.0409 bipin's phone 2.7240
-1.0409 bipin's residence 2.7240
-0.7426 bipin's residential 2.7267
-0.3192 bipin_indurkhya </s> 2.7149
-1.9368 bipin_indurkhya ka 3.2353
-1.7878 bipin_indurkhya ke 2.2040
-1.5716 bipin_indurkhya ko 2.2094
-3.2792 bipin_indurkhya ko_call_kariye 1.8546
-3.2792 bipin_indurkhya ko_call_karo 1.8546
-3.2792 bipin_indurkhya ko_call_kijiye 1.8546
-3.2792 bipin_indurkhya ko_call_lagao 1.8546
-0.3342 bipin_indurkhya sir's 2.2170
-1.0409 bipin_indurkhya's cell 2.7240
-1.0409 bipin_indurkhya's extension 3.2011
-1.0409 bipin_indurkhya's home 2.7240
-1.0409 bipin_indurkhya's mobile 2.7240
-1.0409 bipin_indurkhya's number -1.4545
-0.7426 bipin_indurkhya's office 2.7267
-1.0409 bipin_indurkhya's phone 2.7240
-1.0409 bipin_indurkhya's residence 2.7240
-0.7426 bipin_indurkhya's residential 2.7267
-0.3192 bruhadeshwar </s> 2.7149
-1.9368 bruhadeshwar ka 3.2353
-1.7878 bruhadeshwar ke 2.2040
-1.5716 bruhadeshwar ko 2.2094
-3.2792 bruhadeshwar ko_call_kariye 1.8546
-3.2792 bruhadeshwar ko_call_karo 1.8546
-3.2792 bruhadeshwar ko_call_kijiye 1.8546
-3.2792 bruhadeshwar ko_call_lagao 1.8546
-0.3342 bruhadeshwar sir's 2.2170
-1.0409 bruhadeshwar's cell 2.7240
-1.0409 bruhadeshwar's extension 3.2011
-1.0409 bruhadeshwar's home 2.7240
-1.0409 bruhadeshwar's mobile 2.7240
-1.0409 bruhadeshwar's number -1.4545
-0.7426 bruhadeshwar's office 2.7267
-1.0409 bruhadeshwar's phone 2.7240
-1.0409 bruhadeshwar's residence 2.7240
-0.7426 bruhadeshwar's residential 2.7267
-0.3192 bruhadeshwar_bezawada </s> 2.7149
-1.9368 bruhadeshwar_bezawada ka 3.2353
-1.7878 bruhadeshwar_bezawada ke 2.2040
-1.5716 bruhadeshwar_bezawada ko 2.2094
-3.2792 bruhadeshwar_bezawada ko_call_kariye 1.8546
-3.2792 bruhadeshwar_bezawada ko_call_karo 1.8546
-3.2792 bruhadeshwar_bezawada ko_call_kijiye 1.8546
-3.2792 bruhadeshwar_bezawada ko_call_lagao 1.8546
-0.3342 bruhadeshwar_bezawada sir's 2.2170
-1.0409 bruhadeshwar_bezawada's cell 2.7240
-1.0409 bruhadeshwar_bezawada's extension 3.2011
-1.0409 bruhadeshwar_bezawada's home 2.7240
-1.0409 bruhadeshwar_bezawada's mobile 2.7240
-1.0409 bruhadeshwar_bezawada's number -1.4545
-0.7426 bruhadeshwar_bezawada's office 2.7267
-1.0409 bruhadeshwar_bezawada's phone 2.7240
-1.0409 bruhadeshwar_bezawada's residence 2.7240
-0.7426 bruhadeshwar_bezawada's residential 2.7267
-0.3192 c_n_kaul </s> 2.7149
-1.9368 c_n_kaul ka 3.2353
-1.7878 c_n_kaul ke 2.2040
-1.5716 c_n_kaul ko 2.2094
-3.2792 c_n_kaul ko_call_kariye 1.8546
-3.2792 c_n_kaul ko_call_karo 1.8546
-3.2792 c_n_kaul ko_call_kijiye 1.8546
-3.2792 c_n_kaul ko_call_lagao 1.8546
-0.3342 c_n_kaul sir's 2.2170
-1.0409 c_n_kaul's cell 2.7240
-1.0409 c_n_kaul's extension 3.2011
-1.0409 c_n_kaul's home 2.7240
-1.0409 c_n_kaul's mobile 2.7240
-1.0409 c_n_kaul's number -1.4545
-0.7426 c_n_kaul's office 2.7267
-1.0409 c_n_kaul's phone 2.7240
-1.0409 c_n_kaul's residence 2.7240
-0.7426 c_n_kaul's residential 2.7267
-0.3192 c_v_jawahar </s> 2.7149
-1.9368 c_v_jawahar ka 3.2353
-1.7878 c_v_jawahar ke 2.2040
-1.5716 c_v_jawahar ko 2.2094
-3.2792 c_v_jawahar ko_call_kariye 1.8546
-3.2792 c_v_jawahar ko_call_karo 1.8546
-3.2792 c_v_jawahar ko_call_kijiye 1.8546
-3.2792 c_v_jawahar ko_call_lagao 1.8546
-0.3342 c_v_jawahar sir's 2.2170
-1.0409 c_v_jawahar's cell 2.7240
-1.0409 c_v_jawahar's extension 3.2011
-1.0409 c_v_jawahar's home 2.7240
-1.0409 c_v_jawahar's mobile 2.7240
-1.0409 c_v_jawahar's number -1.4545
-0.7426 c_v_jawahar's office 2.7267
-1.0409 c_v_jawahar's phone 2.7240
-1.0409 c_v_jawahar's residence 2.7240
-0.7426 c_v_jawahar's residential 2.7267
-3.5410 call abhijit_mitra -0.0846
-3.5410 call amitash_ojha -0.0846
-3.5410 call anil_kumar -0.0846
-3.5410 call anil_kumar_vuppala -0.0846
-3.5410 call anoop -0.0846
-3.5410 call anoop_namboodiri -0.0846
-3.5410 call anubha -0.0846
-3.5410 call anubha_gupta -0.0846
-3.5410 call ashok -0.0846
-3.5410 call ashok_kumar -0.0846
-3.5410 call ashok_kumar_das -0.0846
-3.5410 call azeemuddin -0.0846
-3.5410 call azeemuddin_syed -0.0846
-3.5410 call bagga -0.0846
-3.5410 call bagga_r_k -0.0846
-3.5410 call banatanwi_das -0.0846
-3.5410 call banatanwi_das_mahapatra -0.0846
-3.5410 call bezawada -0.0846
-3.5410 call bhaskararao -0.0846
-3.5410 call bhaskararao_peri -0.0846
-3.5410 call bipin -0.0846
-3.5410 call bipin_indurkhya -0.0846
-3.5410 call bruhadeshwar -0.0846
-3.5410 call bruhadeshwar_bezawada -0.0846
-3.5410 call c_n_kaul -0.0846
-3.5410 call c_v_jawahar -0.0846
-1.3208 call cell 2.4124
-3.5410 call chakrapani_bommaraju -0.0846
-3.5410 call chandrasekher -0.0846
-3.5410 call chandrasekher_mukku -0.0846
-3.5410 call chenna -0.0846
-3.5410 call chenna_rajaram -0.0846
-3.5410 call deva_priyakumar -0.0846
-3.5410 call devansh_mittal -0.0846
-3.5410 call dipti_m_sharma -0.0846
-3.5410 call dipti_misra_sharma -0.0846
-3.5410 call dipti_sharma -0.0846
-1.3208 call extension 2.8895
-3.5410 call gangashetty -0.0846
-3.5410 call giridhar -0.0846
-3.5410 call giridhar_rao -0.0846
-3.5410 call giridhar_rao_a -0.0846
-3.5410 call govindarajulu -0.0846
-3.5410 call govindarajulu_r -0.0846
-3.5410 call harjinder -0.0846
-3.5410 call harjinder_singh -0.0846
-3.5410 call harsh_satya -0.0846
-1.3208 call home 2.4124
-3.5410 call indranil -0.0846
-3.5410 call indranil_chakarbarty -0.0846
-3.5410 call jawahar -0.0846
-3.5410 call jawahar_c_v -0.0846
-3.5410 call jayanthi -0.0846
-3.5410 call jayanthi_sivaswamy -0.0846
-3.5410 call jayashree -0.0846
-3.5410 call jayashree_ratnam -0.0846
-3.5410 call k_p -0.0846
-3.5410 call k_r_sharma -0.0846
-3.5410 call k_s_rajan -0.0846
-3.5410 call kamal_karlapalem -0.0846
-3.5410 call kannan -0.0846
-3.5410 call kannan_srinathan -0.0846
-3.5410 call kaul_c_n -0.0846
-3.5410 call kavita -0.0846
-3.5410 call kavita_vemuri -0.0846
-3.5410 call kirti -0.0846
-3.5410 call kirti_garg -0.0846
-3.5410 call kishore_kothapalli -0.0846
-3.5410 call kishore_prahallad -0.0846
-3.5410 call kishore_s_p -0.0846
-3.5410 call krishna_reddy -0.0846
-3.5410 call krishna_reddy_p -0.0846
-3.5410 call madhava_krishna -0.0846
-3.5410 call madhava_krishna_k -0.0846
-3.5410 call mahapatra -0.0846
-3.5410 call marimuthu -0.0846
-3.5410 call marimuthu_krishnan -0.0846
-1.3208 call mobile 2.4124
-3.5410 call mulualem -0.0846
-3.5410 call mulualem_teku -0.0846
-3.5410 call naini_arora -0.0846
-3.5410 call nanda_kishore -0.0846
-3.5410 call nanda_kishore_acharya -0.0846
-3.5410 call narayanan_p_j -0.0846
-3.5410 call navjyoti -0.0846
-3.5410 call navjyoti_singh -0.0846
-3.5410 call neelima -0.0846
-3.5410 call neelima_satyam -0.0846
-3.5410 call neelima_satyam_d -0.0846
-3.5410 call nita_parekh -0.0846
-1.0211 call office 2.4137
-3.5410 call p_j_n -0.0846
-3.5410 call p_j_narayanan -0.0846
-3.5410 call p_k_reddy -0.0846
-3.5410 call p_r_k 0.1303
-3.5410 call peri_bhaskararao -0.0846
-1.3208 call phone 2.4124
-3.5410 call piyush_bansal -0.0846
-3.5410 call prabhakar -0.0846
-3.5410 call prabhakar_bhimalapuram -0.0846
-3.5410 call pradeep -0.0846
-3.5410 call pradeep_kumar -0.0846
-3.5410 call pradeep_kumar_r -0.0846
-3.5410 call pranav_k_vashishta -0.0846
-3.5410 call pranav_vashishta -0.0846
-3.5410 call prashanth_reddy -0.0846
-3.5410 call prashanth_reddy_mannem -0.0846
-3.5410 call priyanka -0.0846
-3.5410 call priyanka_srivastava -0.0846
-3.5410 call r_k_bagga -0.0846
-3.5410 call radhika_mamidi -0.0846
-3.5410 call raghu_reddy -0.0846
-3.5410 call raghu_reddy_y -0.0846
-3.5410 call rajan -0.0846
-3.5410 call rajan_k_s -0.0846
-3.5410 call rajeev_sangal -0.0846
-3.5410 call rajesh_kumar -0.0846
-3.5410 call rajesh_kumar_tavva -0.0846
-3.5410 call rama_murthy -0.0846
-3.5410 call rama_murthy_g -0.0846
-3.5410 call ramachandra_prasad -0.0846
-3.5410 call ramachandra_prasad_p -0.0846
-3.5410 call rambabu -0.0846
-3.5410 call rambabu_kalla -0.0846
-3.5410 call rao_p_r_k -0.0846
-3.5410 call rawat -0.0846
-1.3208 call residence 2.4124
-1.0211 call residential 2.4137
-3.5410 call sandhya_kode -0.0846
-3.5410 call sandhya_v_kode -0.0846
-3.5410 call sharma_k_r -0.0846
-3.5410 call sharmistha -0.0846
-3.5410 call sharmistha_kar -0.0846
-3.5410 call shatrunjay -0.0846
-3.5410 call shatrunjay_rawat -0.0846
-3.5410 call shubhajit_roy -0.0846
-3.5410 call shubhajit_roy_chowdhury -0.0846
-3.5410 call soma_paul -0.0846
-3.5410 call sonal_nimbkar -0.0846
-3.5410 call srinathan_kannan -0.0846
-3.5410 call sriram -0.0846
-3.5410 call sriram_v -0.0846
-3.5410 call srivastava -0.0846
-3.5410 call sunil_lohar -0.0846
-3.5410 call sunil_m_lohar -0.0846
-3.5410 call suresh_purini -0.0846
-3.5410 call suril_shah -0.0846
-3.5410 call suril_vijaykumar_shah -0.0846
-3.5410 call suryakanth -0.0846
-3.5410 call suryakanth_v_g -0.0846
-3.5410 call syamasundar_reddy -0.0846
-3.5410 call syamasundar_reddy_g -0.0846
-3.5410 call tapan_kumar -0.0846
-3.5410 call tapan_kumar_sau -0.0846
-0.3232 call the -2.1713
-3.5410 call vasudeva_verma -0.0846
-3.5410 call venkata_dilip_kumar -0.0846
-3.5410 call venkata_dilip_kumar_p -0.0846
-3.5410 call venkatesh_choppella -0.0846
-3.5410 call venkateswarlu -0.0846
-3.5410 call venkateswarlu_m -0.0846
-3.5410 call vijay_prakash -0.0846
-3.5410 call vijay_prakash_e -0.0846
-3.5410 call vijaya_sankara_rao -0.0846
-3.5410 call vijaya_sankara_rao_p -0.0846
-3.5410 call vikram_pudi -0.0846
-3.5410 call vinay_kumar -0.0846
-3.5410 call vinay_kumar_mittal -0.0846
-3.5410 call vineet_chaitanya -0.0846
-3.5410 call vishal_garg -0.0846
-3.5410 call viswanath -0.0846
-3.5410 call viswanath_k -0.0846
-3.5410 call yegnanarayana -0.0846
-3.5410 call yegnanarayana_b -0.0846
-0.0000 can you 0.0000
-0.0000 cell number 1.0399
-0.3192 chakrapani_bommaraju </s> 2.7149
-1.9368 chakrapani_bommaraju ka 3.2353
-1.7878 chakrapani_bommaraju ke 2.2040
-1.5716 chakrapani_bommaraju ko 2.2094
-3.2792 chakrapani_bommaraju ko_call_kariye 1.8546
-3.2792 chakrapani_bommaraju ko_call_karo 1.8546
-3.2792 chakrapani_bommaraju ko_call_kijiye 1.8546
-3.2792 chakrapani_bommaraju ko_call_lagao 1.8546
-0.3342 chakrapani_bommaraju sir's 2.2170
-1.0409 chakrapani_bommaraju's cell 2.7240
-1.0409 chakrapani_bommaraju's extension 3.2011
-1.0409 chakrapani_bommaraju's home 2.7240
-1.0409 chakrapani_bommaraju's mobile 2.7240
-1.0409 chakrapani_bommaraju's number -1.4545
-0.7426 chakrapani_bommaraju's office 2.7267
-1.0409 chakrapani_bommaraju's phone 2.7240
-1.0409 chakrapani_bommaraju's residence 2.7240
-0.7426 chakrapani_bommaraju's residential 2.7267
-0.3192 chandrasekher </s> 2.7149
-1.9368 chandrasekher ka 3.2353
-1.7878 chandrasekher ke 2.2040
-1.5716 chandrasekher ko 2.2094
-3.2792 chandrasekher ko_call_kariye 1.8546
-3.2792 chandrasekher ko_call_karo 1.8546
-3.2792 chandrasekher ko_call_kijiye 1.8546
-3.2792 chandrasekher ko_call_lagao 1.8546
-0.3342 chandrasekher sir's 2.2170
-1.0409 chandrasekher's cell 2.7240
-1.0409 chandrasekher's extension 3.2011
-1.0409 chandrasekher's home 2.7240
-1.0409 chandrasekher's mobile 2.7240
-1.0409 chandrasekher's number -1.4545
-0.7426 chandrasekher's office 2.7267
-1.0409 chandrasekher's phone 2.7240
-1.0409 chandrasekher's residence 2.7240
-0.7426 chandrasekher's residential 2.7267
-0.3192 chandrasekher_mukku </s> 2.7149
-1.9368 chandrasekher_mukku ka 3.2353
-1.7878 chandrasekher_mukku ke 2.2040
-1.5716 chandrasekher_mukku ko 2.2094
-3.2792 chandrasekher_mukku ko_call_kariye 1.8546
-3.2792 chandrasekher_mukku ko_call_karo 1.8546
-3.2792 chandrasekher_mukku ko_call_kijiye 1.8546
-3.2792 chandrasekher_mukku ko_call_lagao 1.8546
-0.3342 chandrasekher_mukku sir's 2.2170
-1.0409 chandrasekher_mukku's cell 2.7240
-1.0409 chandrasekher_mukku's extension 3.2011
-1.0409 chandrasekher_mukku's home 2.7240
-1.0409 chandrasekher_mukku's mobile 2.7240
-1.0409 chandrasekher_mukku's number -1.4545
-0.7426 chandrasekher_mukku's office 2.7267
-1.0409 chandrasekher_mukku's phone 2.7240
-1.0409 chandrasekher_mukku's residence 2.7240
-0.7426 chandrasekher_mukku's residential 2.7267
-0.3192 chenna </s> 2.7149
-1.9368 chenna ka 3.2353
-1.7878 chenna ke 2.2040
-1.5716 chenna ko 2.2094
-3.2792 chenna ko_call_kariye 1.8546
-3.2792 chenna ko_call_karo 1.8546
-3.2792 chenna ko_call_kijiye 1.8546
-3.2792 chenna ko_call_lagao 1.8546
-0.3342 chenna sir's 2.2170
-1.0409 chenna's cell 2.7240
-1.0409 chenna's extension 3.2011
-1.0409 chenna's home 2.7240
-1.0409 chenna's mobile 2.7240
-1.0409 chenna's number -1.4545
-0.7426 chenna's office 2.7267
-1.0409 chenna's phone 2.7240
-1.0409 chenna's residence 2.7240
-0.7426 chenna's residential 2.7267
-0.3192 chenna_rajaram </s> 2.7149
-1.9368 chenna_rajaram ka 3.2353
-1.7878 chenna_rajaram ke 2.2040
-1.5716 chenna_rajaram ko 2.2094
-3.2792 chenna_rajaram ko_call_kariye 1.8546
-3.2792 chenna_rajaram ko_call_karo 1.8546
-3.2792 chenna_rajaram ko_call_kijiye 1.8546
-3.2792 chenna_rajaram ko_call_lagao 1.8546
-0.3342 chenna_rajaram sir's 2.2170
-1.0409 chenna_rajaram's cell 2.7240
-1.0409 chenna_rajaram's extension 3.2011
-1.0409 chenna_rajaram's home 2.7240
-1.0409 chenna_rajaram's mobile 2.7240
-1.0409 chenna_rajaram's number -1.4545
-0.7426 chenna_rajaram's office 2.7267
-1.0409 chenna_rajaram's phone 2.7240
-1.0409 chenna_rajaram's residence 2.7240
-0.7426 chenna_rajaram's residential 2.7267
-0.3192 deva_priyakumar </s> 2.7149
-1.9368 deva_priyakumar ka 3.2353
-1.7878 deva_priyakumar ke 2.2040
-1.5716 deva_priyakumar ko 2.2094
-3.2792 deva_priyakumar ko_call_kariye 1.8546
-3.2792 deva_priyakumar ko_call_karo 1.8546
-3.2792 deva_priyakumar ko_call_kijiye 1.8546
-3.2792 deva_priyakumar ko_call_lagao 1.8546
-0.3342 deva_priyakumar sir's 2.2170
-1.0409 deva_priyakumar's cell 2.7240
-1.0409 deva_priyakumar's extension 3.2011
-1.0409 deva_priyakumar's home 2.7240
-1.0409 deva_priyakumar's mobile 2.7240
-1.0409 deva_priyakumar's number -1.4545
-0.7426 deva_priyakumar's office 2.7267
-1.0409 deva_priyakumar's phone 2.7240
-1.0409 deva_priyakumar's residence 2.7240
-0.7426 deva_priyakumar's residential 2.7267
-0.3192 devansh_mittal </s> 2.7149
-1.9368 devansh_mittal ka 3.2353
-1.7878 devansh_mittal ke 2.2040
-1.5716 devansh_mittal ko 2.2094
-3.2792 devansh_mittal ko_call_kariye 1.8546
-3.2792 devansh_mittal ko_call_karo 1.8546
-3.2792 devansh_mittal ko_call_kijiye 1.8546
-3.2792 devansh_mittal ko_call_lagao 1.8546
-0.3342 devansh_mittal sir's 2.2170
-1.0409 devansh_mittal's cell 2.7240
-1.0409 devansh_mittal's extension 3.2011
-1.0409 devansh_mittal's home 2.7240
-1.0409 devansh_mittal's mobile 2.7240
-1.0409 devansh_mittal's number -1.4545
-0.7426 devansh_mittal's office 2.7267
-1.0409 devansh_mittal's phone 2.7240
-1.0409 devansh_mittal's residence 2.7240
-0.7426 devansh_mittal's residential 2.7267
-0.3192 dipti_m_sharma </s> 2.7149
-1.9368 dipti_m_sharma ka 3.2353
-1.7878 dipti_m_sharma ke 2.2040
-1.5716 dipti_m_sharma ko 2.2094
-3.2792 dipti_m_sharma ko_call_kariye 1.8546
-3.2792 dipti_m_sharma ko_call_karo 1.8546
-3.2792 dipti_m_sharma ko_call_kijiye 1.8546
-3.2792 dipti_m_sharma ko_call_lagao 1.8546
-0.3342 dipti_m_sharma sir's 2.2170
-1.0409 dipti_m_sharma's cell 2.7240
-1.0409 dipti_m_sharma's extension 3.2011
-1.0409 dipti_m_sharma's home 2.7240
-1.0409 dipti_m_sharma's mobile 2.7240
-1.0409 dipti_m_sharma's number -1.4545
-0.7426 dipti_m_sharma's office 2.7267
-1.0409 dipti_m_sharma's phone 2.7240
-1.0409 dipti_m_sharma's residence 2.7240
-0.7426 dipti_m_sharma's residential 2.7267
-0.3192 dipti_misra_sharma </s> 2.7149
-1.9368 dipti_misra_sharma ka 3.2353
-1.7878 dipti_misra_sharma ke 2.2040
-1.5716 dipti_misra_sharma ko 2.2094
-3.2792 dipti_misra_sharma ko_call_kariye 1.8546
-3.2792 dipti_misra_sharma ko_call_karo 1.8546
-3.2792 dipti_misra_sharma ko_call_kijiye 1.8546
-3.2792 dipti_misra_sharma ko_call_lagao 1.8546
-0.3342 dipti_misra_sharma sir's 2.2170
-1.0409 dipti_misra_sharma's cell 2.7240
-1.0409 dipti_misra_sharma's extension 3.2011
-1.0409 dipti_misra_sharma's home 2.7240
-1.0409 dipti_misra_sharma's mobile 2.7240
-1.0409 dipti_misra_sharma's number -1.4545
-0.7426 dipti_misra_sharma's office 2.7267
-1.0409 dipti_misra_sharma's phone 2.7240
-1.0409 dipti_misra_sharma's residence 2.7240
-0.7426 dipti_misra_sharma's residential 2.7267
-0.3192 dipti_sharma </s> 2.7149
-1.9368 dipti_sharma ka 3.2353
-1.7878 dipti_sharma ke 2.2040
-1.5716 dipti_sharma ko 2.2094
-3.2792 dipti_sharma ko_call_kariye 1.8546
-3.2792 dipti_sharma ko_call_karo 1.8546
-3.2792 dipti_sharma ko_call_kijiye 1.8546
-3.2792 dipti_sharma ko_call_lagao 1.8546
-0.3342 dipti_sharma sir's 2.2170
-1.0409 dipti_sharma's cell 2.7240
-1.0409 dipti_sharma's extension 3.2011
-1.0409 dipti_sharma's home 2.7240
-1.0409 dipti_sharma's mobile 2.7240
-1.0409 dipti_sharma's number -1.4545
-0.7426 dipti_sharma's office 2.7267
-1.0409 dipti_sharma's phone 2.7240
-1.0409 dipti_sharma's residence 2.7240
-0.7426 dipti_sharma's residential 2.7267
-0.0002 do </s> 2.4158
-2.3936 doctor abhijit_mitra -1.0086
-2.6946 doctor abhijit_mitra's 1.0000
-2.3936 doctor amitash_ojha -1.0086
-2.6946 doctor amitash_ojha's 1.0000
-2.3936 doctor anil_kumar -1.0086
-2.6946 doctor anil_kumar's 1.0000
-2.3936 doctor anil_kumar_vuppala -1.0086
-2.6946 doctor anil_kumar_vuppala's 1.0000
-2.3936 doctor anoop -1.0086
-2.6946 doctor anoop's 1.0000
-2.3936 doctor anoop_namboodiri -1.0086
-2.6946 doctor anoop_namboodiri's 1.0000
-2.3936 doctor anubha -1.0086
-2.6946 doctor anubha's 1.0000
-2.3936 doctor anubha_gupta -1.0086
-2.6946 doctor anubha_gupta's 1.0000
-2.3936 doctor ashok -1.0086
-2.6946 doctor ashok's 1.0000
-2.3936 doctor ashok_kumar -1.0086
-2.6946 doctor ashok_kumar's 1.0000
-2.3936 doctor ashok_kumar_das -1.0086
-2.6946 doctor ashok_kumar_das's 1.0000
-2.3936 doctor azeemuddin -1.0086
-2.6946 doctor azeemuddin's 1.0000
-2.3936 doctor azeemuddin_syed -1.0086
-2.6946 doctor azeemuddin_syed's 1.0000
-2.3936 doctor bagga -1.0086
-2.6946 doctor bagga's 1.0000
-2.3936 doctor bagga_r_k -1.0086
-2.6946 doctor bagga_r_k's 1.0000
-2.3936 doctor banatanwi_das -1.0086
-2.6946 doctor banatanwi_das's 1.0000
-2.3936 doctor banatanwi_das_mahapatra -1.0086
-2.6946 doctor banatanwi_das_mahapatra's 1.0000
-2.3936 doctor bezawada -1.0086
-2.6946 doctor bezawada's 1.0000
-2.3936 doctor bhaskararao -1.0086
-2.6946 doctor bhaskararao's 1.0000
-2.3936 doctor bhaskararao_peri -1.0086
-2.6946 doctor bhaskararao_peri's 1.0000
-2.3936 doctor bipin -1.0086
-2.6946 doctor bipin's 1.0000
-2.3936 doctor bipin_indurkhya -1.0086
-2.6946 doctor bipin_indurkhya's 1.0000
-2.3936 doctor bruhadeshwar -1.0086
-2.6946 doctor bruhadeshwar's 1.0000
-2.3936 doctor bruhadeshwar_bezawada -1.0086
-2.6946 doctor bruhadeshwar_bezawada's 1.0000
-2.3936 doctor c_n_kaul -1.0086
-2.6946 doctor c_n_kaul's 1.0000
-2.3936 doctor c_v_jawahar -1.0086
-2.6946 doctor c_v_jawahar's 1.0000
-2.3936 doctor chakrapani_bommaraju -1.0086
-2.6946 doctor chakrapani_bommaraju's 1.0000
-2.3936 doctor chandrasekher -1.0086
-2.6946 doctor chandrasekher's 1.0000
-2.3936 doctor chandrasekher_mukku -1.0086
-2.6946 doctor chandrasekher_mukku's 1.0000
-2.3936 doctor chenna -1.0086
-2.6946 doctor chenna's 1.0000
-2.3936 doctor chenna_rajaram -1.0086
-2.6946 doctor chenna_rajaram's 1.0000
-2.3936 doctor deva_priyakumar -1.0086
-2.6946 doctor deva_priyakumar's 1.0000
-2.3936 doctor devansh_mittal -1.0086
-2.6946 doctor devansh_mittal's 1.0000
-2.3936 doctor dipti_m_sharma -1.0086
-2.6946 doctor dipti_m_sharma's 1.0000
-2.3936 doctor dipti_misra_sharma -1.0086
-2.6946 doctor dipti_misra_sharma's 1.0000
-2.3936 doctor dipti_sharma -1.0086
-2.6946 doctor dipti_sharma's 1.0000
-2.3936 doctor gangashetty -1.0086
-2.6946 doctor gangashetty's 1.0000
-2.3936 doctor giridhar -1.0086
-2.6946 doctor giridhar's 1.0000
-2.3936 doctor giridhar_rao -1.0086
-2.6946 doctor giridhar_rao's 1.0000
-2.3936 doctor giridhar_rao_a -1.0086
-2.6946 doctor giridhar_rao_a's 1.0000
-2.3936 doctor govindarajulu -1.0086
-2.6946 doctor govindarajulu's 1.0000
-2.3936 doctor govindarajulu_r -1.0086
-2.6946 doctor govindarajulu_r's 1.0000
-2.3936 doctor harjinder -1.0086
-2.6946 doctor harjinder's 1.0000
-2.3936 doctor harjinder_singh -1.0086
-2.6946 doctor harjinder_singh's 1.0000
-2.3936 doctor harsh_satya -1.0086
-2.6946 doctor harsh_satya's 1.0000
-2.3936 doctor indranil -1.0086
-2.6946 doctor indranil's 1.0000
-2.3936 doctor indranil_chakarbarty -1.0086
-2.6946 doctor indranil_chakarbarty's 1.0000
-2.3936 doctor jawahar -1.0086
-2.6946 doctor jawahar's 1.0000
-2.3936 doctor jawahar_c_v -1.0086
-2.6946 doctor jawahar_c_v's 1.0000
-2.3936 doctor jayanthi -1.0086
-2.6946 doctor jayanthi's 1.0000
-2.3936 doctor jayanthi_sivaswamy -1.0086
-2.6946 doctor jayanthi_sivaswamy's 1.0000
-2.3936 doctor jayashree -1.0086
-2.6946 doctor jayashree's 1.0000
-2.3936 doctor jayashree_ratnam -1.0086
-2.6946 doctor jayashree_ratnam's 1.0000
-2.3936 doctor k_p -1.0086
-2.6946 doctor k_p's 1.0000
-2.3936 doctor k_r_sharma -1.0086
-2.6946 doctor k_r_sharma's 1.0000
-2.3936 doctor k_s_rajan -1.0086
-2.6946 doctor k_s_rajan's 1.0000
-2.3936 doctor kamal_karlapalem -1.0086
-2.6946 doctor kamal_karlapalem's 1.0000
-2.3936 doctor kannan -1.0086
-2.6946 doctor kannan's 1.0000
-2.3936 doctor kannan_srinathan -1.0086
-2.6946 doctor kannan_srinathan's 1.0000
-2.3936 doctor kaul_c_n -1.0086
-2.6946 doctor kaul_c_n's 1.0000
-2.3936 doctor kavita -1.0086
-2.6946 doctor kavita's 1.0000
-2.3936 doctor kavita_vemuri -1.0086
-2.6946 doctor kavita_vemuri's 1.0000
-2.3936 doctor kirti -1.0086
-2.6946 doctor kirti's 1.0000
-2.3936 doctor kirti_garg -1.0086
-2.6946 doctor kirti_garg's 1.0000
-2.3936 doctor kishore_kothapalli -1.0086
-2.6946 doctor kishore_kothapalli's 1.0000
-2.3936 doctor kishore_prahallad -1.0086
-2.6946 doctor kishore_prahallad's 1.0000
-2.3936 doctor kishore_s_p -1.0086
-2.6946 doctor kishore_s_p's 1.0000
-2.3936 doctor krishna_reddy -1.0086
-2.6946 doctor krishna_reddy's 1.0000
-2.3936 doctor krishna_reddy_p -1.0086
-2.6946 doctor krishna_reddy_p's 1.0000
-2.3936 doctor madhava_krishna -1.0086
-2.6946 doctor madhava_krishna's 1.0000
-2.3936 doctor madhava_krishna_k -1.0086
-2.6946 doctor madhava_krishna_k's 1.0000
-2.3936 doctor mahapatra -1.0086
-2.6946 doctor mahapatra's 1.0000
-2.3936 doctor marimuthu -1.0086
-2.6946 doctor marimuthu's 1.0000
-2.3936 doctor marimuthu_krishnan -1.0086
-2.6946 doctor marimuthu_krishnan's 1.0000
-2.3936 doctor mulualem -1.0086
-2.6946 doctor mulualem's 1.0000
-2.3936 doctor mulualem_teku -1.0086
-2.6946 doctor mulualem_teku's 1.0000
-2.3936 doctor naini_arora -1.0086
-2.6946 doctor naini_arora's 1.0000
-2.3936 doctor nanda_kishore -1.0086
-2.6946 doctor nanda_kishore's 1.0000
-2.3936 doctor nanda_kishore_acharya -1.0086
-2.6946 doctor nanda_kishore_acharya's 1.0000
-2.3936 doctor narayanan_p_j -1.0086
-2.6946 doctor narayanan_p_j's 1.0000
-2.3936 doctor navjyoti -1.0086
-2.6946 doctor navjyoti's 1.0000
-2.3936 doctor navjyoti_singh -1.0086
-2.6946 doctor navjyoti_singh's 1.0000
-2.3936 doctor neelima -1.0086
-2.6946 doctor neelima's 1.0000
-2.3936 doctor neelima_satyam -1.0086
-2.6946 doctor neelima_satyam's 1.0000
-2.3936 doctor neelima_satyam_d -1.0086
-2.6946 doctor neelima_satyam_d's 1.0000
-2.3936 doctor nita_parekh -1.0086
-2.6946 doctor nita_parekh's 1.0000
-2.3936 doctor p_j_n -1.0086
-2.6946 doctor p_j_n's 1.0000
-2.3936 doctor p_j_narayanan -1.0086
-2.6946 doctor p_j_narayanan's 1.0000
-2.3936 doctor p_k_reddy -1.0086
-2.6946 doctor p_k_reddy's 1.0000
-2.2191 doctor p_r_k 1.0190
-2.3936 doctor peri_bhaskararao -1.0086
-2.6946 doctor peri_bhaskararao's 1.0000
-2.3936 doctor piyush_bansal -1.0086
-2.6946 doctor piyush_bansal's 1.0000
-2.3936 doctor prabhakar -1.0086
-2.6946 doctor prabhakar's 1.0000
-2.3936 doctor prabhakar_bhimalapuram -1.0086
-2.6946 doctor prabhakar_bhimalapuram's 1.0000
-2.3936 doctor pradeep -1.0086
-2.6946 doctor pradeep's 1.0000
-2.3936 doctor pradeep_kumar -1.0086
-2.6946 doctor pradeep_kumar's 1.0000
-2.3936 doctor pradeep_kumar_r -1.0086
-2.6946 doctor pradeep_kumar_r's 1.0000
-2.3936 doctor pranav_k_vashishta -1.0086
-2.6946 doctor pranav_k_vashishta's 1.0000
-2.3936 doctor pranav_vashishta -1.0086
-2.6946 doctor pranav_vashishta's 1.0000
-2.3936 doctor prashanth_reddy -1.0086
-2.6946 doctor prashanth_reddy's 1.0000
-2.3936 doctor prashanth_reddy_mannem -1.0086
-2.6946 doctor prashanth_reddy_mannem's 1.0000
-2.3936 doctor priyanka -1.0086
-2.6946 doctor priyanka's 1.0000
-2.3936 doctor priyanka_srivastava -1.0086
-2.6946 doctor priyanka_srivastava's 1.0000
-2.3936 doctor r_k_bagga -1.0086
-2.6946 doctor r_k_bagga's 1.0000
-2.3936 doctor radhika_mamidi -1.0086
-2.6946 doctor radhika_mamidi's 1.0000
-2.3936 doctor raghu_reddy -1.0086
-2.6946 doctor raghu_reddy's 1.0000
-2.3936 doctor raghu_reddy_y -1.0086
-2.6946 doctor raghu_reddy_y's 1.0000
-2.3936 doctor rajan -1.0086
-2.6946 doctor rajan's 1.0000
-2.3936 doctor rajan_k_s -1.0086
-2.6946 doctor rajan_k_s's 1.0000
-2.3936 doctor rajeev_sangal -1.0086
-2.6946 doctor rajeev_sangal's 1.0000
-2.3936 doctor rajesh_kumar -1.0086
-2.6946 doctor rajesh_kumar's 1.0000
-2.3936 doctor rajesh_kumar_tavva -1.0086
-2.6946 doctor rajesh_kumar_tavva's 1.0000
-2.3936 doctor rama_murthy -1.0086
-2.6946 doctor rama_murthy's 1.0000
-2.3936 doctor rama_murthy_g -1.0086
-2.6946 doctor rama_murthy_g's 1.0000
-2.3936 doctor ramachandra_prasad -1.0086
-2.6946 doctor ramachandra_prasad's 1.0000
-2.3936 doctor ramachandra_prasad_p -1.0086
-2.6946 doctor ramachandra_prasad_p's 1.0000
-2.3936 doctor rambabu -1.0086
-2.6946 doctor rambabu's 1.0000
-2.3936 doctor rambabu_kalla -1.0086
-2.6946 doctor rambabu_kalla's 1.0000
-2.3936 doctor rao_p_r_k -1.0086
-2.6946 doctor rao_p_r_k's 1.0000
-2.3936 doctor rawat -1.0086
-2.6946 doctor rawat's 1.0000
-2.3936 doctor sandhya_kode -1.0086
-2.6946 doctor sandhya_kode's 1.0000
-2.3936 doctor sandhya_v_kode -1.0086
-2.6946 doctor sandhya_v_kode's 1.0000
-2.3936 doctor sharma_k_r -1.0086
-2.6946 doctor sharma_k_r's 1.0000
-2.3936 doctor sharmistha -1.0086
-2.6946 doctor sharmistha's 1.0000
-2.3936 doctor sharmistha_kar -1.0086
-2.6946 doctor sharmistha_kar's 1.0000
-2.3936 doctor shatrunjay -1.0086
-2.6946 doctor shatrunjay's 1.0000
-2.3936 doctor shatrunjay_rawat -1.0086
-2.6946 doctor shatrunjay_rawat's 1.0000
-2.3936 doctor shubhajit_roy -1.0086
-2.6946 doctor shubhajit_roy's 1.0000
-2.3936 doctor shubhajit_roy_chowdhury -1.0086
-2.6946 doctor shubhajit_roy_chowdhury's 1.0000
-2.3936 doctor soma_paul -1.0086
-2.6946 doctor soma_paul's 1.0000
-2.3936 doctor sonal_nimbkar -1.0086
-2.6946 doctor sonal_nimbkar's 1.0000
-2.3936 doctor srinathan_kannan -1.0086
-2.6946 doctor srinathan_kannan's 1.0000
-2.3936 doctor sriram -1.0086
-2.6946 doctor sriram's 1.0000
-2.3936 doctor sriram_v -1.0086
-2.6946 doctor sriram_v's 1.0000
-2.3936 doctor srivastava -1.0086
-2.6946 doctor srivastava's 1.0000
-2.3936 doctor sunil_lohar -1.0086
-2.6946 doctor sunil_lohar's 1.0000
-2.3936 doctor sunil_m_lohar -1.0086
-2.6946 doctor sunil_m_lohar's 1.0000
-2.3936 doctor suresh_purini -1.0086
-2.6946 doctor suresh_purini's 1.0000
-2.3936 doctor suril_shah -1.0086
-2.6946 doctor suril_shah's 1.0000
-2.3936 doctor suril_vijaykumar_shah -1.0086
-2.6946 doctor suril_vijaykumar_shah's 1.0000
-2.3936 doctor suryakanth -1.0086
-2.6946 doctor suryakanth's 1.0000
-2.3936 doctor suryakanth_v_g -1.0086
-2.6946 doctor suryakanth_v_g's 1.0000
-2.3936 doctor syamasundar_reddy -1.0086
-2.6946 doctor syamasundar_reddy's 1.0000
-2.3936 doctor syamasundar_reddy_g -1.0086
-2.6946 doctor syamasundar_reddy_g's 1.0000
-2.3936 doctor tapan_kumar -1.0086
-2.6946 doctor tapan_kumar's 1.0000
-2.3936 doctor tapan_kumar_sau -1.0086
-2.6946 doctor tapan_kumar_sau's 1.0000
-2.3936 doctor vasudeva_verma -1.0086
-2.6946 doctor vasudeva_verma's 1.0000
-2.3936 doctor venkata_dilip_kumar -1.0086
-2.6946 doctor venkata_dilip_kumar's 1.0000
-2.3936 doctor venkata_dilip_kumar_p -1.0086
-2.6946 doctor venkata_dilip_kumar_p's 1.0000
-2.3936 doctor venkatesh_choppella -1.0086
-2.6946 doctor venkatesh_choppella's 1.0000
-2.3936 doctor venkateswarlu -1.0086
-2.6946 doctor venkateswarlu's 1.0000
-2.3936 doctor venkateswarlu_m -1.0086
-2.6946 doctor venkateswarlu_m's 1.0000
-2.3936 doctor vijay_prakash -1.0086
-2.6946 doctor vijay_prakash's 1.0000
-2.3936 doctor vijay_prakash_e -1.0086
-2.6946 doctor vijay_prakash_e's 1.0000
-2.3936 doctor vijaya_sankara_rao -1.0086
-2.6946 doctor vijaya_sankara_rao's 1.0000
-2.3936 doctor vijaya_sankara_rao_p -1.0086
-2.6946 doctor vijaya_sankara_rao_p's 1.0000
-2.3936 doctor vikram_pudi -1.0086
-2.6946 doctor vikram_pudi's 1.0000
-2.3936 doctor vinay_kumar -1.0086
-2.6946 doctor vinay_kumar's 1.0000
-2.3936 doctor vinay_kumar_mittal -1.0086
-2.6946 doctor vinay_kumar_mittal's 1.0000
-2.3936 doctor vineet_chaitanya -1.0086
-2.6946 doctor vineet_chaitanya's 1.0000
-2.3936 doctor vishal_garg -1.0086
-2.6946 doctor vishal_garg's 1.0000
-2.3936 doctor viswanath -1.0086
-2.6946 doctor viswanath's 1.0000
-2.3936 doctor viswanath_k -1.0086
-2.6946 doctor viswanath_k's 1.0000
-2.3936 doctor yegnanarayana -1.0086
-2.6946 doctor yegnanarayana's 1.0000
-2.3936 doctor yegnanarayana_b -1.0086
-2.6946 doctor yegnanarayana_b's 1.0000
-2.3936 dr abhijit_mitra -1.0086
-2.6946 dr abhijit_mitra's 1.0000
-2.3936 dr amitash_ojha -1.0086
-2.6946 dr amitash_ojha's 1.0000
-2.3936 dr anil_kumar -1.0086
-2.6946 dr anil_kumar's 1.0000
-2.3936 dr anil_kumar_vuppala -1.0086
-2.6946 dr anil_kumar_vuppala's 1.0000
-2.3936 dr anoop -1.0086
-2.6946 dr anoop's 1.0000
-2.3936 dr anoop_namboodiri -1.0086
-2.6946 dr anoop_namboodiri's 1.0000
-2.3936 dr anubha -1.0086
-2.6946 dr anubha's 1.0000
-2.3936 dr anubha_gupta -1.0086
-2.6946 dr anubha_gupta's 1.0000
-2.3936 dr ashok -1.0086
-2.6946 dr ashok's 1.0000
-2.3936 dr ashok_kumar -1.0086
-2.6946 dr ashok_kumar's 1.0000
-2.3936 dr ashok_kumar_das -1.0086
-2.6946 dr ashok_kumar_das's 1.0000
-2.3936 dr azeemuddin -1.0086
-2.6946 dr azeemuddin's 1.0000
-2.3936 dr azeemuddin_syed -1.0086
-2.6946 dr azeemuddin_syed's 1.0000
-2.3936 dr bagga -1.0086
-2.6946 dr bagga's 1.0000
-2.3936 dr bagga_r_k -1.0086
-2.6946 dr bagga_r_k's 1.0000
-2.3936 dr banatanwi_das -1.0086
-2.6946 dr banatanwi_das's 1.0000
-2.3936 dr banatanwi_das_mahapatra -1.0086
-2.6946 dr banatanwi_das_mahapatra's 1.0000
-2.3936 dr bezawada -1.0086
-2.6946 dr bezawada's 1.0000
-2.3936 dr bhaskararao -1.0086
-2.6946 dr bhaskararao's 1.0000
-2.3936 dr bhaskararao_peri -1.0086
-2.6946 dr bhaskararao_peri's 1.0000
-2.3936 dr bipin -1.0086
-2.6946 dr bipin's 1.0000
-2.3936 dr bipin_indurkhya -1.0086
-2.6946 dr bipin_indurkhya's 1.0000
-2.3936 dr bruhadeshwar -1.0086
-2.6946 dr bruhadeshwar's 1.0000
-2.3936 dr bruhadeshwar_bezawada -1.0086
-2.6946 dr bruhadeshwar_bezawada's 1.0000
-2.3936 dr c_n_kaul -1.0086
-2.6946 dr c_n_kaul's 1.0000
-2.3936 dr c_v_jawahar -1.0086
-2.6946 dr c_v_jawahar's 1.0000
-2.3936 dr chakrapani_bommaraju -1.0086
-2.6946 dr chakrapani_bommaraju's 1.0000
-2.3936 dr chandrasekher -1.0086
-2.6946 dr chandrasekher's 1.0000
-2.3936 dr chandrasekher_mukku -1.0086
-2.6946 dr chandrasekher_mukku's 1.0000
-2.3936 dr chenna -1.0086
-2.6946 dr chenna's 1.0000
-2.3936 dr chenna_rajaram -1.0086
-2.6946 dr chenna_rajaram's 1.0000
-2.3936 dr deva_priyakumar -1.0086
-2.6946 dr deva_priyakumar's 1.0000
-2.3936 dr devansh_mittal -1.0086
-2.6946 dr devansh_mittal's 1.0000
-2.3936 dr dipti_m_sharma -1.0086
-2.6946 dr dipti_m_sharma's 1.0000
-2.3936 dr dipti_misra_sharma -1.0086
-2.6946 dr dipti_misra_sharma's 1.0000
-2.3936 dr dipti_sharma -1.0086
-2.6946 dr dipti_sharma's 1.0000
-2.3936 dr gangashetty -1.0086
-2.6946 dr gangashetty's 1.0000
-2.3936 dr giridhar -1.0086
-2.6946 dr giridhar's 1.0000
-2.3936 dr giridhar_rao -1.0086
-2.6946 dr giridhar_rao's 1.0000
-2.3936 dr giridhar_rao_a -1.0086
-2.6946 dr giridhar_rao_a's 1.0000
-2.3936 dr govindarajulu -1.0086
-2.6946 dr govindarajulu's 1.0000
-2.3936 dr govindarajulu_r -1.0086
-2.6946 dr govindarajulu_r's 1.0000
-2.3936 dr harjinder -1.0086
-2.6946 dr harjinder's 1.0000
-2.3936 dr harjinder_singh -1.0086
-2.6946 dr harjinder_singh's 1.0000
-2.3936 dr harsh_satya -1.0086
-2.6946 dr harsh_satya's 1.0000
-2.3936 dr indranil -1.0086
-2.6946 dr indranil's 1.0000
-2.3936 dr indranil_chakarbarty -1.0086
-2.6946 dr indranil_chakarbarty's 1.0000
-2.3936 dr jawahar -1.0086
-2.6946 dr jawahar's 1.0000
-2.3936 dr jawahar_c_v -1.0086
-2.6946 dr jawahar_c_v's 1.0000
-2.3936 dr jayanthi -1.0086
-2.6946 dr jayanthi's 1.0000
-2.3936 dr jayanthi_sivaswamy -1.0086
-2.6946 dr jayanthi_sivaswamy's 1.0000
-2.3936 dr jayashree -1.0086
-2.6946 dr jayashree's 1.0000
-2.3936 dr jayashree_ratnam -1.0086
-2.6946 dr jayashree_ratnam's 1.0000
-2.3936 dr k_p -1.0086
-2.6946 dr k_p's 1.0000
-2.3936 dr k_r_sharma -1.0086
-2.6946 dr k_r_sharma's 1.0000
-2.3936 dr k_s_rajan -1.0086
-2.6946 dr k_s_rajan's 1.0000
-2.3936 dr kamal_karlapalem -1.0086
-2.6946 dr kamal_karlapalem's 1.0000
-2.3936 dr kannan -1.0086
-2.6946 dr kannan's 1.0000
-2.3936 dr kannan_srinathan -1.0086
-2.6946 dr kannan_srinathan's 1.0000
-2.3936 dr kaul_c_n -1.0086
-2.6946 dr kaul_c_n's 1.0000
-2.3936 dr kavita -1.0086
-2.6946 dr kavita's 1.0000
-2.3936 dr kavita_vemuri -1.0086
-2.6946 dr kavita_vemuri's 1.0000
-2.3936 dr kirti -1.0086
-2.6946 dr kirti's 1.0000
-2.3936 dr kirti_garg -1.0086
-2.6946 dr kirti_garg's 1.0000
-2.3936 dr kishore_kothapalli -1.0086
-2.6946 dr kishore_kothapalli's 1.0000
-2.3936 dr kishore_prahallad -1.0086
-2.6946 dr kishore_prahallad's 1.0000
-2.3936 dr kishore_s_p -1.0086
-2.6946 dr kishore_s_p's 1.0000
-2.3936 dr krishna_reddy -1.0086
-2.6946 dr krishna_reddy's 1.0000
-2.3936 dr krishna_reddy_p -1.0086
-2.6946 dr krishna_reddy_p's 1.0000
-2.3936 dr madhava_krishna -1.0086
-2.6946 dr madhava_krishna's 1.0000
-2.3936 dr madhava_krishna_k -1.0086
-2.6946 dr madhava_krishna_k's 1.0000
-2.3936 dr mahapatra -1.0086
-2.6946 dr mahapatra's 1.0000
-2.3936 dr marimuthu -1.0086
-2.6946 dr marimuthu's 1.0000
-2.3936 dr marimuthu_krishnan -1.0086
-2.6946 dr marimuthu_krishnan's 1.0000
-2.3936 dr mulualem -1.0086
-2.6946 dr mulualem's 1.0000
-2.3936 dr mulualem_teku -1.0086
-2.6946 dr mulualem_teku's 1.0000
-2.3936 dr naini_arora -1.0086
-2.6946 dr naini_arora's 1.0000
-2.3936 dr nanda_kishore -1.0086
-2.6946 dr nanda_kishore's 1.0000
-2.3936 dr nanda_kishore_acharya -1.0086
-2.6946 dr nanda_kishore_acharya's 1.0000
-2.3936 dr narayanan_p_j -1.0086
-2.6946 dr narayanan_p_j's 1.0000
-2.3936 dr navjyoti -1.0086
-2.6946 dr navjyoti's 1.0000
-2.3936 dr navjyoti_singh -1.0086
-2.6946 dr navjyoti_singh's 1.0000
-2.3936 dr neelima -1.0086
-2.6946 dr neelima's 1.0000
-2.3936 dr neelima_satyam -1.0086
-2.6946 dr neelima_satyam's 1.0000
-2.3936 dr neelima_satyam_d -1.0086
-2.6946 dr neelima_satyam_d's 1.0000
-2.3936 dr nita_parekh -1.0086
-2.6946 dr nita_parekh's 1.0000
-2.3936 dr p_j_n -1.0086
-2.6946 dr p_j_n's 1.0000
-2.3936 dr p_j_narayanan -1.0086
-2.6946 dr p_j_narayanan's 1.0000
-2.3936 dr p_k_reddy -1.0086
-2.6946 dr p_k_reddy's 1.0000
-2.2191 dr p_r_k 1.0190
-2.3936 dr peri_bhaskararao -1.0086
-2.6946 dr peri_bhaskararao's 1.0000
-2.3936 dr piyush_bansal -1.0086
-2.6946 dr piyush_bansal's 1.0000
-2.3936 dr prabhakar -1.0086
-2.6946 dr prabhakar's 1.0000
-2.3936 dr prabhakar_bhimalapuram -1.0086
-2.6946 dr prabhakar_bhimalapuram's 1.0000
-2.3936 dr pradeep -1.0086
-2.6946 dr pradeep's 1.0000
-2.3936 dr pradeep_kumar -1.0086
-2.6946 dr pradeep_kumar's 1.0000
-2.3936 dr pradeep_kumar_r -1.0086
-2.6946 dr pradeep_kumar_r's 1.0000
-2.3936 dr pranav_k_vashishta -1.0086
-2.6946 dr pranav_k_vashishta's 1.0000
-2.3936 dr pranav_vashishta -1.0086
-2.6946 dr pranav_vashishta's 1.0000
-2.3936 dr prashanth_reddy -1.0086
-2.6946 dr prashanth_reddy's 1.0000
-2.3936 dr prashanth_reddy_mannem -1.0086
-2.6946 dr prashanth_reddy_mannem's 1.0000
-2.3936 dr priyanka -1.0086
-2.6946 dr priyanka's 1.0000
-2.3936 dr priyanka_srivastava -1.0086
-2.6946 dr priyanka_srivastava's 1.0000
-2.3936 dr r_k_bagga -1.0086
-2.6946 dr r_k_bagga's 1.0000
-2.3936 dr radhika_mamidi -1.0086
-2.6946 dr radhika_mamidi's 1.0000
-2.3936 dr raghu_reddy -1.0086
-2.6946 dr raghu_reddy's 1.0000
-2.3936 dr raghu_reddy_y -1.0086
-2.6946 dr raghu_reddy_y's 1.0000
-2.3936 dr rajan -1.0086
-2.6946 dr rajan's 1.0000
-2.3936 dr rajan_k_s -1.0086
-2.6946 dr rajan_k_s's 1.0000
-2.3936 dr rajeev_sangal -1.0086
-2.6946 dr rajeev_sangal's 1.0000
-2.3936 dr rajesh_kumar -1.0086
-2.6946 dr rajesh_kumar's 1.0000
-2.3936 dr rajesh_kumar_tavva -1.0086
-2.6946 dr rajesh_kumar_tavva's 1.0000
-2.3936 dr rama_murthy -1.0086
-2.6946 dr rama_murthy's 1.0000
-2.3936 dr rama_murthy_g -1.0086
-2.6946 dr rama_murthy_g's 1.0000
-2.3936 dr ramachandra_prasad -1.0086
-2.6946 dr ramachandra_prasad's 1.0000
-2.3936 dr ramachandra_prasad_p -1.0086
-2.6946 dr ramachandra_prasad_p's 1.0000
-2.3936 dr rambabu -1.0086
-2.6946 dr rambabu's 1.0000
-2.3936 dr rambabu_kalla -1.0086
-2.6946 dr rambabu_kalla's 1.0000
-2.3936 dr rao_p_r_k -1.0086
-2.6946 dr rao_p_r_k's 1.0000
-2.3936 dr rawat -1.0086
-2.6946 dr rawat's 1.0000
-2.3936 dr sandhya_kode -1.0086
-2.6946 dr sandhya_kode's 1.0000
-2.3936 dr sandhya_v_kode -1.0086
-2.6946 dr sandhya_v_kode's 1.0000
-2.3936 dr sharma_k_r -1.0086
-2.6946 dr sharma_k_r's 1.0000
-2.3936 dr sharmistha -1.0086
-2.6946 dr sharmistha's 1.0000
-2.3936 dr sharmistha_kar -1.0086
-2.6946 dr sharmistha_kar's 1.0000
-2.3936 dr shatrunjay -1.0086
-2.6946 dr shatrunjay's 1.0000
-2.3936 dr shatrunjay_rawat -1.0086
-2.6946 dr shatrunjay_rawat's 1.0000
-2.3936 dr shubhajit_roy -1.0086
-2.6946 dr shubhajit_roy's 1.0000
-2.3936 dr shubhajit_roy_chowdhury -1.0086
-2.6946 dr shubhajit_roy_chowdhury's 1.0000
-2.3936 dr soma_paul -1.0086
-2.6946 dr soma_paul's 1.0000
-2.3936 dr sonal_nimbkar -1.0086
-2.6946 dr sonal_nimbkar's 1.0000
-2.3936 dr srinathan_kannan -1.0086
-2.6946 dr srinathan_kannan's 1.0000
-2.3936 dr sriram -1.0086
-2.6946 dr sriram's 1.0000
-2.3936 dr sriram_v -1.0086
-2.6946 dr sriram_v's 1.0000
-2.3936 dr srivastava -1.0086
-2.6946 dr srivastava's 1.0000
-2.3936 dr sunil_lohar -1.0086
-2.6946 dr sunil_lohar's 1.0000
-2.3936 dr sunil_m_lohar -1.0086
-2.6946 dr sunil_m_lohar's 1.0000
-2.3936 dr suresh_purini -1.0086
-2.6946 dr suresh_purini's 1.0000
-2.3936 dr suril_shah -1.0086
-2.6946 dr suril_shah's 1.0000
-2.3936 dr suril_vijaykumar_shah -1.0086
-2.6946 dr suril_vijaykumar_shah's 1.0000
-2.3936 dr suryakanth -1.0086
-2.6946 dr suryakanth's 1.0000
-2.3936 dr suryakanth_v_g -1.0086
-2.6946 dr suryakanth_v_g's 1.0000
-2.3936 dr syamasundar_reddy -1.0086
-2.6946 dr syamasundar_reddy's 1.0000
-2.3936 dr syamasundar_reddy_g -1.0086
-2.6946 dr syamasundar_reddy_g's 1.0000
-2.3936 dr tapan_kumar -1.0086
-2.6946 dr tapan_kumar's 1.0000
-2.3936 dr tapan_kumar_sau -1.0086
-2.6946 dr tapan_kumar_sau's 1.0000
-2.3936 dr vasudeva_verma -1.0086
-2.6946 dr vasudeva_verma's 1.0000
-2.3936 dr venkata_dilip_kumar -1.0086
-2.6946 dr venkata_dilip_kumar's 1.0000
-2.3936 dr venkata_dilip_kumar_p -1.0086
-2.6946 dr venkata_dilip_kumar_p's 1.0000
-2.3936 dr venkatesh_choppella -1.0086
-2.6946 dr venkatesh_choppella's 1.0000
-2.3936 dr venkateswarlu -1.0086
-2.6946 dr venkateswarlu's 1.0000
-2.3936 dr venkateswarlu_m -1.0086
-2.6946 dr venkateswarlu_m's 1.0000
-2.3936 dr vijay_prakash -1.0086
-2.6946 dr vijay_prakash's 1.0000
-2.3936 dr vijay_prakash_e -1.0086
-2.6946 dr vijay_prakash_e's 1.0000
-2.3936 dr vijaya_sankara_rao -1.0086
-2.6946 dr vijaya_sankara_rao's 1.0000
-2.3936 dr vijaya_sankara_rao_p -1.0086
-2.6946 dr vijaya_sankara_rao_p's 1.0000
-2.3936 dr vikram_pudi -1.0086
-2.6946 dr vikram_pudi's 1.0000
-2.3936 dr vinay_kumar -1.0086
-2.6946 dr vinay_kumar's 1.0000
-2.3936 dr vinay_kumar_mittal -1.0086
-2.6946 dr vinay_kumar_mittal's 1.0000
-2.3936 dr vineet_chaitanya -1.0086
-2.6946 dr vineet_chaitanya's 1.0000
-2.3936 dr vishal_garg -1.0086
-2.6946 dr vishal_garg's 1.0000
-2.3936 dr viswanath -1.0086
-2.6946 dr viswanath's 1.0000
-2.3936 dr viswanath_k -1.0086
-2.6946 dr viswanath_k's 1.0000
-2.3936 dr yegnanarayana -1.0086
-2.6946 dr yegnanarayana's 1.0000
-2.3936 dr yegnanarayana_b -1.0086
-2.6946 dr yegnanarayana_b's 1.0000
-0.0000 extension number 0.5628
-0.3192 gangashetty </s> 2.7149
-1.9368 gangashetty ka 3.2353
-1.7878 gangashetty ke 2.2040
-1.5716 gangashetty ko 2.2094
-3.2792 gangashetty ko_call_kariye 1.8546
-3.2792 gangashetty ko_call_karo 1.8546
-3.2792 gangashetty ko_call_kijiye 1.8546
-3.2792 gangashetty ko_call_lagao 1.8546
-0.3342 gangashetty sir's 2.2170
-1.0409 gangashetty's cell 2.7240
-1.0409 gangashetty's extension 3.2011
-1.0409 gangashetty's home 2.7240
-1.0409 gangashetty's mobile 2.7240
-1.0409 gangashetty's number -1.4545
-0.7426 gangashetty's office 2.7267
-1.0409 gangashetty's phone 2.7240
-1.0409 gangashetty's residence 2.7240
-0.7426 gangashetty's residential 2.7267
-0.3192 giridhar </s> 2.7149
-1.9368 giridhar ka 3.2353
-1.7878 giridhar ke 2.2040
-1.5716 giridhar ko 2.2094
-3.2792 giridhar ko_call_kariye 1.8546
-3.2792 giridhar ko_call_karo 1.8546
-3.2792 giridhar ko_call_kijiye 1.8546
-3.2792 giridhar ko_call_lagao 1.8546
-0.3342 giridhar sir's 2.2170
-1.0409 giridhar's cell 2.7240
-1.0409 giridhar's extension 3.2011
-1.0409 giridhar's home 2.7240
-1.0409 giridhar's mobile 2.7240
-1.0409 giridhar's number -1.4545
-0.7426 giridhar's office 2.7267
-1.0409 giridhar's phone 2.7240
-1.0409 giridhar's residence 2.7240
-0.7426 giridhar's residential 2.7267
-0.3192 giridhar_rao </s> 2.7149
-1.9368 giridhar_rao ka 3.2353
-1.7878 giridhar_rao ke 2.2040
-1.5716 giridhar_rao ko 2.2094
-3.2792 giridhar_rao ko_call_kariye 1.8546
-3.2792 giridhar_rao ko_call_karo 1.8546
-3.2792 giridhar_rao ko_call_kijiye 1.8546
-3.2792 giridhar_rao ko_call_lagao 1.8546
-0.3342 giridhar_rao sir's 2.2170
-1.0409 giridhar_rao's cell 2.7240
-1.0409 giridhar_rao's extension 3.2011
-1.0409 giridhar_rao's home 2.7240
-1.0409 giridhar_rao's mobile 2.7240
-1.0409 giridhar_rao's number -1.4545
-0.7426 giridhar_rao's office 2.7267
-1.0409 giridhar_rao's phone 2.7240
-1.0409 giridhar_rao's residence 2.7240
-0.7426 giridhar_rao's residential 2.7267
-0.3192 giridhar_rao_a </s> 2.7149
-1.9368 giridhar_rao_a ka 3.2353
-1.7878 giridhar_rao_a ke 2.2040
-1.5716 giridhar_rao_a ko 2.2094
-3.2792 giridhar_rao_a ko_call_kariye 1.8546
-3.2792 giridhar_rao_a ko_call_karo 1.8546
-3.2792 giridhar_rao_a ko_call_kijiye 1.8546
-3.2792 giridhar_rao_a ko_call_lagao 1.8546
-0.3342 giridhar_rao_a sir's 2.2170
-1.0409 giridhar_rao_a's cell 2.7240
-1.0409 giridhar_rao_a's extension 3.2011
-1.0409 giridhar_rao_a's home 2.7240
-1.0409 giridhar_rao_a's mobile 2.7240
-1.0409 giridhar_rao_a's number -1.4545
-0.7426 giridhar_rao_a's office 2.7267
-1.0409 giridhar_rao_a's phone 2.7240
-1.0409 giridhar_rao_a's residence 2.7240
-0.7426 giridhar_rao_a's residential 2.7267
-0.0000 give me 0.0007
-0.3192 govindarajulu </s> 2.7149
-1.9368 govindarajulu ka 3.2353
-1.7878 govindarajulu ke 2.2040
-1.5716 govindarajulu ko 2.2094
-3.2792 govindarajulu ko_call_kariye 1.8546
-3.2792 govindarajulu ko_call_karo 1.8546
-3.2792 govindarajulu ko_call_kijiye 1.8546
-3.2792 govindarajulu ko_call_lagao 1.8546
-0.3342 govindarajulu sir's 2.2170
-1.0409 govindarajulu's cell 2.7240
-1.0409 govindarajulu's extension 3.2011
-1.0409 govindarajulu's home 2.7240
-1.0409 govindarajulu's mobile 2.7240
-1.0409 govindarajulu's number -1.4545
-0.7426 govindarajulu's office 2.7267
-1.0409 govindarajulu's phone 2.7240
-1.0409 govindarajulu's residence 2.7240
-0.7426 govindarajulu's residential 2.7267
-0.3192 govindarajulu_r </s> 2.7149
-1.9368 govindarajulu_r ka 3.2353
-1.7878 govindarajulu_r ke 2.2040
-1.5716 govindarajulu_r ko 2.2094
-3.2792 govindarajulu_r ko_call_kariye 1.8546
-3.2792 govindarajulu_r ko_call_karo 1.8546
-3.2792 govindarajulu_r ko_call_kijiye 1.8546
-3.2792 govindarajulu_r ko_call_lagao 1.8546
-0.3342 govindarajulu_r sir's 2.2170
-1.0409 govindarajulu_r's cell 2.7240
-1.0409 govindarajulu_r's extension 3.2011
-1.0409 govindarajulu_r's home 2.7240
-1.0409 govindarajulu_r's mobile 2.7240
-1.0409 govindarajulu_r's number -1.4545
-0.7426 govindarajulu_r's office 2.7267
-1.0409 govindarajulu_r's phone 2.7240
-1.0409 govindarajulu_r's residence 2.7240
-0.7426 govindarajulu_r's residential 2.7267
-0.3192 harjinder </s> 2.7149
-1.9368 harjinder ka 3.2353
-1.7878 harjinder ke 2.2040
-1.5716 harjinder ko 2.2094
-3.2792 harjinder ko_call_kariye 1.8546
-3.2792 harjinder ko_call_karo 1.8546
-3.2792 harjinder ko_call_kijiye 1.8546
-3.2792 harjinder ko_call_lagao 1.8546
-0.3342 harjinder sir's 2.2170
-1.0409 harjinder's cell 2.7240
-1.0409 harjinder's extension 3.2011
-1.0409 harjinder's home 2.7240
-1.0409 harjinder's mobile 2.7240
-1.0409 harjinder's number -1.4545
-0.7426 harjinder's office 2.7267
-1.0409 harjinder's phone 2.7240
-1.0409 harjinder's residence 2.7240
-0.7426 harjinder's residential 2.7267
-0.3192 harjinder_singh </s> 2.7149
-1.9368 harjinder_singh ka 3.2353
-1.7878 harjinder_singh ke 2.2040
-1.5716 harjinder_singh ko 2.2094
-3.2792 harjinder_singh ko_call_kariye 1.8546
-3.2792 harjinder_singh ko_call_karo 1.8546
-3.2792 harjinder_singh ko_call_kijiye 1.8546
-3.2792 harjinder_singh ko_call_lagao 1.8546
-0.3342 harjinder_singh sir's 2.2170
-1.0409 harjinder_singh's cell 2.7240
-1.0409 harjinder_singh's extension 3.2011
-1.0409 harjinder_singh's home 2.7240
-1.0409 harjinder_singh's mobile 2.7240
-1.0409 harjinder_singh's number -1.4545
-0.7426 harjinder_singh's office 2.7267
-1.0409 harjinder_singh's phone 2.7240
-1.0409 harjinder_singh's residence 2.7240
-0.7426 harjinder_singh's residential 2.7267
-0.3192 harsh_satya </s> 2.7149
-1.9368 harsh_satya ka 3.2353
-1.7878 harsh_satya ke 2.2040
-1.5716 harsh_satya ko 2.2094
-3.2792 harsh_satya ko_call_kariye 1.8546
-3.2792 harsh_satya ko_call_karo 1.8546
-3.2792 harsh_satya ko_call_kijiye 1.8546
-3.2792 harsh_satya ko_call_lagao 1.8546
-0.3342 harsh_satya sir's 2.2170
-1.0409 harsh_satya's cell 2.7240
-1.0409 harsh_satya's extension 3.2011
-1.0409 harsh_satya's home 2.7240
-1.0409 harsh_satya's mobile 2.7240
-1.0409 harsh_satya's number -1.4545
-0.7426 harsh_satya's office 2.7267
-1.0409 harsh_satya's phone 2.7240
-1.0409 harsh_satya's residence 2.7240
-0.7426 harsh_satya's residential 2.7267
-0.0000 home number 1.0399
-0.0000 i want 0.0013
-0.3192 indranil </s> 2.7149
-1.9368 indranil ka 3.2353
-1.7878 indranil ke 2.2040
-1.5716 indranil ko 2.2094
-3.2792 indranil ko_call_kariye 1.8546
-3.2792 indranil ko_call_karo 1.8546
-3.2792 indranil ko_call_kijiye 1.8546
-3.2792 indranil ko_call_lagao 1.8546
-0.3342 indranil sir's 2.2170
-1.0409 indranil's cell 2.7240
-1.0409 indranil's extension 3.2011
-1.0409 indranil's home 2.7240
-1.0409 indranil's mobile 2.7240
-1.0409 indranil's number -1.4545
-0.7426 indranil's office 2.7267
-1.0409 indranil's phone 2.7240
-1.0409 indranil's residence 2.7240
-0.7426 indranil's residential 2.7267
-0.3192 indranil_chakarbarty </s> 2.7149
-1.9368 indranil_chakarbarty ka 3.2353
-1.7878 indranil_chakarbarty ke 2.2040
-1.5716 indranil_chakarbarty ko 2.2094
-3.2792 indranil_chakarbarty ko_call_kariye 1.8546
-3.2792 indranil_chakarbarty ko_call_karo 1.8546
-3.2792 indranil_chakarbarty ko_call_kijiye 1.8546
-3.2792 indranil_chakarbarty ko_call_lagao 1.8546
-0.3342 indranil_chakarbarty sir's 2.2170
-1.0409 indranil_chakarbarty's cell 2.7240
-1.0409 indranil_chakarbarty's extension 3.2011
-1.0409 indranil_chakarbarty's home 2.7240
-1.0409 indranil_chakarbarty's mobile 2.7240
-1.0409 indranil_chakarbarty's number -1.4545
-0.7426 indranil_chakarbarty's office 2.7267
-1.0409 indranil_chakarbarty's phone 2.7240
-1.0409 indranil_chakarbarty's residence 2.7240
-0.7426 indranil_chakarbarty's residential 2.7267
-3.6724 is abhijit_mitra -0.8090
-3.7102 is abhijit_mitra's 2.6838
-3.6724 is amitash_ojha -0.8090
-3.7102 is amitash_ojha's 2.6838
-3.6724 is anil_kumar -0.8090
-3.7102 is anil_kumar's 2.6838
-3.6724 is anil_kumar_vuppala -0.8090
-3.7102 is anil_kumar_vuppala's 2.6838
-3.6724 is anoop -0.8090
-3.7102 is anoop's 2.6838
-3.6724 is anoop_namboodiri -0.8090
-3.7102 is anoop_namboodiri's 2.6838
-3.6724 is anubha -0.8090
-3.7102 is anubha's 2.6838
-3.6724 is anubha_gupta -0.8090
-3.7102 is anubha_gupta's 2.6838
-3.6724 is ashok -0.8090
-3.7102 is ashok's 2.6838
-3.6724 is ashok_kumar -0.8090
-3.7102 is ashok_kumar's 2.6838
-3.6724 is ashok_kumar_das -0.8090
-3.7102 is ashok_kumar_das's 2.6838
-3.6724 is azeemuddin -0.8090
-3.7102 is azeemuddin's 2.6838
-3.6724 is azeemuddin_syed -0.8090
-3.7102 is azeemuddin_syed's 2.6838
-3.6724 is bagga -0.8090
-3.7102 is bagga's 2.6838
-3.6724 is bagga_r_k -0.8090
-3.7102 is bagga_r_k's 2.6838
-3.6724 is banatanwi_das -0.8090
-3.7102 is banatanwi_das's 2.6838
-3.6724 is banatanwi_das_mahapatra -0.8090
-3.7102 is banatanwi_das_mahapatra's 2.6838
-3.6724 is bezawada -0.8090
-3.7102 is bezawada's 2.6838
-3.6724 is bhaskararao -0.8090
-3.7102 is bhaskararao's 2.6838
-3.6724 is bhaskararao_peri -0.8090
-3.7102 is bhaskararao_peri's 2.6838
-3.6724 is bipin -0.8090
-3.7102 is bipin's 2.6838
-3.6724 is bipin_indurkhya -0.8090
-3.7102 is bipin_indurkhya's 2.6838
-3.6724 is bruhadeshwar -0.8090
-3.7102 is bruhadeshwar's 2.6838
-3.6724 is bruhadeshwar_bezawada -0.8090
-3.7102 is bruhadeshwar_bezawada's 2.6838
-3.6724 is c_n_kaul -0.8090
-3.7102 is c_n_kaul's 2.6838
-3.6724 is c_v_jawahar -0.8090
-3.7102 is c_v_jawahar's 2.6838
-3.6724 is chakrapani_bommaraju -0.8090
-3.7102 is chakrapani_bommaraju's 2.6838
-3.6724 is chandrasekher -0.8090
-3.7102 is chandrasekher's 2.6838
-3.6724 is chandrasekher_mukku -0.8090
-3.7102 is chandrasekher_mukku's 2.6838
-3.6724 is chenna -0.8090
-3.7102 is chenna's 2.6838
-3.6724 is chenna_rajaram -0.8090
-3.7102 is chenna_rajaram's 2.6838
-3.6724 is deva_priyakumar -0.8090
-3.7102 is deva_priyakumar's 2.6838
-3.6724 is devansh_mittal -0.8090
-3.7102 is devansh_mittal's 2.6838
-3.6724 is dipti_m_sharma -0.8090
-3.7102 is dipti_m_sharma's 2.6838
-3.6724 is dipti_misra_sharma -0.8090
-3.7102 is dipti_misra_sharma's 2.6838
-3.6724 is dipti_sharma -0.8090
-3.7102 is dipti_sharma's 2.6838
-1.1916 is doctor 1.0840
-1.1916 is dr 1.0840
-3.6724 is gangashetty -0.8090
-3.7102 is gangashetty's 2.6838
-3.6724 is giridhar -0.8090
-3.7102 is giridhar's 2.6838
-3.6724 is giridhar_rao -0.8090
-3.7102 is giridhar_rao's 2.6838
-3.6724 is giridhar_rao_a -0.8090
-3.7102 is giridhar_rao_a's 2.6838
-3.6724 is govindarajulu -0.8090
-3.7102 is govindarajulu's 2.6838
-3.6724 is govindarajulu_r -0.8090
-3.7102 is govindarajulu_r's 2.6838
-3.6724 is harjinder -0.8090
-3.7102 is harjinder's 2.6838
-3.6724 is harjinder_singh -0.8090
-3.7102 is harjinder_singh's 2.6838
-3.6724 is harsh_satya -0.8090
-3.7102 is harsh_satya's 2.6838
-3.6724 is indranil -0.8090
-3.7102 is indranil's 2.6838
-3.6724 is indranil_chakarbarty -0.8090
-3.7102 is indranil_chakarbarty's 2.6838
-3.6724 is jawahar -0.8090
-3.7102 is jawahar's 2.6838
-3.6724 is jawahar_c_v -0.8090
-3.7102 is jawahar_c_v's 2.6838
-3.6724 is jayanthi -0.8090
-3.7102 is jayanthi's 2.6838
-3.6724 is jayanthi_sivaswamy -0.8090
-3.7102 is jayanthi_sivaswamy's 2.6838
-3.6724 is jayashree -0.8090
-3.7102 is jayashree's 2.6838
-3.6724 is jayashree_ratnam -0.8090
-3.7102 is jayashree_ratnam's 2.6838
-3.6724 is k_p -0.8090
-3.7102 is k_p's 2.6838
-3.6724 is k_r_sharma -0.8090
-3.7102 is k_r_sharma's 2.6838
-3.6724 is k_s_rajan -0.8090
-3.7102 is k_s_rajan's 2.6838
-3.6724 is kamal_karlapalem -0.8090
-3.7102 is kamal_karlapalem's 2.6838
-3.6724 is kannan -0.8090
-3.7102 is kannan's 2.6838
-3.6724 is kannan_srinathan -0.8090
-3.7102 is kannan_srinathan's 2.6838
-3.6724 is kaul_c_n -0.8090
-3.7102 is kaul_c_n's 2.6838
-3.6724 is kavita -0.8090
-3.7102 is kavita's 2.6838
-3.6724 is kavita_vemuri -0.8090
-3.7102 is kavita_vemuri's 2.6838
-3.6724 is kirti -0.8090
-3.7102 is kirti's 2.6838
-3.6724 is kirti_garg -0.8090
-3.7102 is kirti_garg's 2.6838
-3.6724 is kishore_kothapalli -0.8090
-3.7102 is kishore_kothapalli's 2.6838
-3.6724 is kishore_prahallad -0.8090
-3.7102 is kishore_prahallad's 2.6838
-3.6724 is kishore_s_p -0.8090
-3.7102 is kishore_s_p's 2.6838
-3.6724 is krishna_reddy -0.8090
-3.7102 is krishna_reddy's 2.6838
-3.6724 is krishna_reddy_p -0.8090
-3.7102 is krishna_reddy_p's 2.6838
-3.6724 is madhava_krishna -0.8090
-3.7102 is madhava_krishna's 2.6838
-3.6724 is madhava_krishna_k -0.8090
-3.7102 is madhava_krishna_k's 2.6838
-3.6724 is mahapatra -0.8090
-3.7102 is mahapatra's 2.6838
-3.6724 is marimuthu -0.8090
-3.7102 is marimuthu's 2.6838
-3.6724 is marimuthu_krishnan -0.8090
-3.7102 is marimuthu_krishnan's 2.6838
-1.1916 is missus 1.0840
-1.1916 is mister 1.0840
-1.1916 is mr 1.0840
-1.1916 is mrs 1.0840
-3.6724 is mulualem -0.8090
-3.7102 is mulualem's 2.6838
-3.6724 is mulualem_teku -0.8090
-3.7102 is mulualem_teku's 2.6838
-3.6724 is naini_arora -0.8090
-3.7102 is naini_arora's 2.6838
-3.6724 is nanda_kishore -0.8090
-3.7102 is nanda_kishore's 2.6838
-3.6724 is nanda_kishore_acharya -0.8090
-3.7102 is nanda_kishore_acharya's 2.6838
-3.6724 is narayanan_p_j -0.8090
-3.7102 is narayanan_p_j's 2.6838
-3.6724 is navjyoti -0.8090
-3.7102 is navjyoti's 2.6838
-3.6724 is navjyoti_singh -0.8090
-3.7102 is navjyoti_singh's 2.6838
-3.6724 is neelima -0.8090
-3.7102 is neelima's 2.6838
-3.6724 is neelima_satyam -0.8090
-3.7102 is neelima_satyam's 2.6838
-3.6724 is neelima_satyam_d -0.8090
-3.7102 is neelima_satyam_d's 2.6838
-3.6724 is nita_parekh -0.8090
-3.7102 is nita_parekh's 2.6838
-3.6724 is p_j_n -0.8090
-3.7102 is p_j_n's 2.6838
-3.6724 is p_j_narayanan -0.8090
-3.7102 is p_j_narayanan's 2.6838
-3.6724 is p_k_reddy -0.8090
-3.7102 is p_k_reddy's 2.6838
-3.3899 is p_r_k 2.0822
-3.6724 is peri_bhaskararao -0.8090
-3.7102 is peri_bhaskararao's 2.6838
-3.6724 is piyush_bansal -0.8090
-3.7102 is piyush_bansal's 2.6838
-3.6724 is prabhakar -0.8090
-3.7102 is prabhakar's 2.6838
-3.6724 is prabhakar_bhimalapuram -0.8090
-3.7102 is prabhakar_bhimalapuram's 2.6838
-3.6724 is pradeep -0.8090
-3.7102 is pradeep's 2.6838
-3.6724 is pradeep_kumar -0.8090
-3.7102 is pradeep_kumar's 2.6838
-3.6724 is pradeep_kumar_r -0.8090
-3.7102 is pradeep_kumar_r's 2.6838
-3.6724 is pranav_k_vashishta -0.8090
-3.7102 is pranav_k_vashishta's 2.6838
-3.6724 is pranav_vashishta -0.8090
-3.7102 is pranav_vashishta's 2.6838
-3.6724 is prashanth_reddy -0.8090
-3.7102 is prashanth_reddy's 2.6838
-3.6724 is prashanth_reddy_mannem -0.8090
-3.7102 is prashanth_reddy_mannem's 2.6838
-3.6724 is priyanka -0.8090
-3.7102 is priyanka's 2.6838
-3.6724 is priyanka_srivastava -0.8090
-3.7102 is priyanka_srivastava's 2.6838
-1.1916 is prof 1.0840
-1.1916 is professor 1.0840
-3.6724 is r_k_bagga -0.8090
-3.7102 is r_k_bagga's 2.6838
-3.6724 is radhika_mamidi -0.8090
-3.7102 is radhika_mamidi's 2.6838
-3.6724 is raghu_reddy -0.8090
-3.7102 is raghu_reddy's 2.6838
-3.6724 is raghu_reddy_y -0.8090
-3.7102 is raghu_reddy_y's 2.6838
-3.6724 is rajan -0.8090
-3.7102 is rajan's 2.6838
-3.6724 is rajan_k_s -0.8090
-3.7102 is rajan_k_s's 2.6838
-3.6724 is rajeev_sangal -0.8090
-3.7102 is rajeev_sangal's 2.6838
-3.6724 is rajesh_kumar -0.8090
-3.7102 is rajesh_kumar's 2.6838
-3.6724 is rajesh_kumar_tavva -0.8090
-3.7102 is rajesh_kumar_tavva's 2.6838
-3.6724 is rama_murthy -0.8090
-3.7102 is rama_murthy's 2.6838
-3.6724 is rama_murthy_g -0.8090
-3.7102 is rama_murthy_g's 2.6838
-3.6724 is ramachandra_prasad -0.8090
-3.7102 is ramachandra_prasad's 2.6838
-3.6724 is ramachandra_prasad_p -0.8090
-3.7102 is ramachandra_prasad_p's 2.6838
-3.6724 is rambabu -0.8090
-3.7102 is rambabu's 2.6838
-3.6724 is rambabu_kalla -0.8090
-3.7102 is rambabu_kalla's 2.6838
-3.6724 is rao_p_r_k -0.8090
-3.7102 is rao_p_r_k's 2.6838
-3.6724 is rawat -0.8090
-3.7102 is rawat's 2.6838
-3.6724 is sandhya_kode -0.8090
-3.7102 is sandhya_kode's 2.6838
-3.6724 is sandhya_v_kode -0.8090
-3.7102 is sandhya_v_kode's 2.6838
-3.6724 is sharma_k_r -0.8090
-3.7102 is sharma_k_r's 2.6838
-3.6724 is sharmistha -0.8090
-3.7102 is sharmistha's 2.6838
-3.6724 is sharmistha_kar -0.8090
-3.7102 is sharmistha_kar's 2.6838
-3.6724 is shatrunjay -0.8090
-3.7102 is shatrunjay's 2.6838
-3.6724 is shatrunjay_rawat -0.8090
-3.7102 is shatrunjay_rawat's 2.6838
-3.6724 is shubhajit_roy -0.8090
-3.7102 is shubhajit_roy's 2.6838
-3.6724 is shubhajit_roy_chowdhury -0.8090
-3.7102 is shubhajit_roy_chowdhury's 2.6838
-1.1916 is sir 1.0840
-3.6724 is soma_paul -0.8090
-3.7102 is soma_paul's 2.6838
-3.6724 is sonal_nimbkar -0.8090
-3.7102 is sonal_nimbkar's 2.6838
-3.6724 is srinathan_kannan -0.8090
-3.7102 is srinathan_kannan's 2.6838
-3.6724 is sriram -0.8090
-3.7102 is sriram's 2.6838
-3.6724 is sriram_v -0.8090
-3.7102 is sriram_v's 2.6838
-3.6724 is srivastava -0.8090
-3.7102 is srivastava's 2.6838
-3.6724 is sunil_lohar -0.8090
-3.7102 is sunil_lohar's 2.6838
-3.6724 is sunil_m_lohar -0.8090
-3.7102 is sunil_m_lohar's 2.6838
-3.6724 is suresh_purini -0.8090
-3.7102 is suresh_purini's 2.6838
-3.6724 is suril_shah -0.8090
-3.7102 is suril_shah's 2.6838
-3.6724 is suril_vijaykumar_shah -0.8090
-3.7102 is suril_vijaykumar_shah's 2.6838
-3.6724 is suryakanth -0.8090
-3.7102 is suryakanth's 2.6838
-3.6724 is suryakanth_v_g -0.8090
-3.7102 is suryakanth_v_g's 2.6838
-3.6724 is syamasundar_reddy -0.8090
-3.7102 is syamasundar_reddy's 2.6838
-3.6724 is syamasundar_reddy_g -0.8090
-3.7102 is syamasundar_reddy_g's 2.6838
-3.6724 is tapan_kumar -0.8090
-3.7102 is tapan_kumar's 2.6838
-3.6724 is tapan_kumar_sau -0.8090
-3.7102 is tapan_kumar_sau's 2.6838
-0.4513 is the 0.8502
-3.6724 is vasudeva_verma -0.8090
-3.7102 is vasudeva_verma's 2.6838
-3.6724 is venkata_dilip_kumar -0.8090
-3.7102 is venkata_dilip_kumar's 2.6838
-3.6724 is venkata_dilip_kumar_p -0.8090
-3.7102 is venkata_dilip_kumar_p's 2.6838
-3.6724 is venkatesh_choppella -0.8090
-3.7102 is venkatesh_choppella's 2.6838
-3.6724 is venkateswarlu -0.8090
-3.7102 is venkateswarlu's 2.6838
-3.6724 is venkateswarlu_m -0.8090
-3.7102 is venkateswarlu_m's 2.6838
-3.6724 is vijay_prakash -0.8090
-3.7102 is vijay_prakash's 2.6838
-3.6724 is vijay_prakash_e -0.8090
-3.7102 is vijay_prakash_e's 2.6838
-3.6724 is vijaya_sankara_rao -0.8090
-3.7102 is vijaya_sankara_rao's 2.6838
-3.6724 is vijaya_sankara_rao_p -0.8090
-3.7102 is vijaya_sankara_rao_p's 2.6838
-3.6724 is vikram_pudi -0.8090
-3.7102 is vikram_pudi's 2.6838
-3.6724 is vinay_kumar -0.8090
-3.7102 is vinay_kumar's 2.6838
-3.6724 is vinay_kumar_mittal -0.8090
-3.7102 is vinay_kumar_mittal's 2.6838
-3.6724 is vineet_chaitanya -0.8090
-3.7102 is vineet_chaitanya's 2.6838
-3.6724 is vishal_garg -0.8090
-3.7102 is vishal_garg's 2.6838
-3.6724 is viswanath -0.8090
-3.7102 is viswanath's 2.6838
-3.6724 is viswanath_k -0.8090
-3.7102 is viswanath_k's 2.6838
-3.6724 is yegnanarayana -0.8090
-3.7102 is yegnanarayana's 2.6838
-3.6724 is yegnanarayana_b -0.8090
-3.7102 is yegnanarayana_b's 2.6838
-0.3192 jawahar </s> 2.7149
-1.9368 jawahar ka 3.2353
-1.7878 jawahar ke 2.2040
-1.5716 jawahar ko 2.2094
-3.2792 jawahar ko_call_kariye 1.8546
-3.2792 jawahar ko_call_karo 1.8546
-3.2792 jawahar ko_call_kijiye 1.8546
-3.2792 jawahar ko_call_lagao 1.8546
-0.3342 jawahar sir's 2.2170
-1.0409 jawahar's cell 2.7240
-1.0409 jawahar's extension 3.2011
-1.0409 jawahar's home 2.7240
-1.0409 jawahar's mobile 2.7240
-1.0409 jawahar's number -1.4545
-0.7426 jawahar's office 2.7267
-1.0409 jawahar's phone 2.7240
-1.0409 jawahar's residence 2.7240
-0.7426 jawahar's residential 2.7267
-0.3192 jawahar_c_v </s> 2.7149
-1.9368 jawahar_c_v ka 3.2353
-1.7878 jawahar_c_v ke 2.2040
-1.5716 jawahar_c_v ko 2.2094
-3.2792 jawahar_c_v ko_call_kariye 1.8546
-3.2792 jawahar_c_v ko_call_karo 1.8546
-3.2792 jawahar_c_v ko_call_kijiye 1.8546
-3.2792 jawahar_c_v ko_call_lagao 1.8546
-0.3342 jawahar_c_v sir's 2.2170
-1.0409 jawahar_c_v's cell 2.7240
-1.0409 jawahar_c_v's extension 3.2011
-1.0409 jawahar_c_v's home 2.7240
-1.0409 jawahar_c_v's mobile 2.7240
-1.0409 jawahar_c_v's number -1.4545
-0.7426 jawahar_c_v's office 2.7267
-1.0409 jawahar_c_v's phone 2.7240
-1.0409 jawahar_c_v's residence 2.7240
-0.7426 jawahar_c_v's residential 2.7267
-0.3192 jayanthi </s> 2.7149
-1.9368 jayanthi ka 3.2353
-1.7878 jayanthi ke 2.2040
-1.5716 jayanthi ko 2.2094
-3.2792 jayanthi ko_call_kariye 1.8546
-3.2792 jayanthi ko_call_karo 1.8546
-3.2792 jayanthi ko_call_kijiye 1.8546
-3.2792 jayanthi ko_call_lagao 1.8546
-0.3342 jayanthi sir's 2.2170
-1.0409 jayanthi's cell 2.7240
-1.0409 jayanthi's extension 3.2011
-1.0409 jayanthi's home 2.7240
-1.0409 jayanthi's mobile 2.7240
-1.0409 jayanthi's number -1.4545
-0.7426 jayanthi's office 2.7267
-1.0409 jayanthi's phone 2.7240
-1.0409 jayanthi's residence 2.7240
-0.7426 jayanthi's residential 2.7267
-0.3192 jayanthi_sivaswamy </s> 2.7149
-1.9368 jayanthi_sivaswamy ka 3.2353
-1.7878 jayanthi_sivaswamy ke 2.2040
-1.5716 jayanthi_sivaswamy ko 2.2094
-3.2792 jayanthi_sivaswamy ko_call_kariye 1.8546
-3.2792 jayanthi_sivaswamy ko_call_karo 1.8546
-3.2792 jayanthi_sivaswamy ko_call_kijiye 1.8546
-3.2792 jayanthi_sivaswamy ko_call_lagao 1.8546
-0.3342 jayanthi_sivaswamy sir's 2.2170
-1.0409 jayanthi_sivaswamy's cell 2.7240
-1.0409 jayanthi_sivaswamy's extension 3.2011
-1.0409 jayanthi_sivaswamy's home 2.7240
-1.0409 jayanthi_sivaswamy's mobile 2.7240
